version=1
booster[0]:
0:[myrecentsearchcount_14<0.5] yes=1,no=2,missing=1
	1:[groupmembercount_<36.5] yes=3,no=4,missing=3
		3:[grouplastactivetime_<1275.5] yes=7,no=8,missing=7
			7:[groupmembercount_<7.5] yes=15,no=16,missing=15
				15:leaf=0.00840228889
				16:leaf=-0.000149576881
			8:[groupmyselflastactivetime_<1849.5] yes=17,no=18,missing=17
				17:leaf=0.00129079889
				18:leaf=-0.00775077706
		4:[groupmembercount_<140.5] yes=9,no=10,missing=9
			9:[groupfriendscount_<9.5] yes=19,no=20,missing=19
				19:leaf=-0.0129629504
				20:leaf=-0.00690705469
			10:[groupfriendscount_<16.5] yes=21,no=22,missing=21
				21:leaf=-0.0159336217
				22:leaf=-0.0131486459
	2:[groupmembercount_<38.5] yes=5,no=6,missing=5
		5:[myrecentsearchcount_7<1.5] yes=11,no=12,missing=11
			11:[groupmembercount_<6.5] yes=23,no=24,missing=23
				23:leaf=0.0162829328
				24:leaf=0.0130344648
			12:[groupfriendscount_<5.5] yes=25,no=26,missing=25
				25:leaf=0.0179670285
				26:leaf=0.0165132172
		6:[myrecentsearchcount_7<2.5] yes=13,no=14,missing=13
			13:[groupunreadmsgcount_<0.5] yes=27,no=28,missing=27
				27:leaf=0.010630874
				28:leaf=0.00280186045
			14:[myrecentsearchcount_7<4.5] yes=29,no=30,missing=29
				29:leaf=0.013833344
				30:leaf=0.0169747081
booster[1]:
0:[myrecentsearchcount_7<0.5] yes=1,no=2,missing=1
	1:[groupmembercount_<36.5] yes=3,no=4,missing=3
		3:[grouplastactivetime_<1267.5] yes=7,no=8,missing=7
			7:[groupmembercount_<8.5] yes=15,no=16,missing=15
				15:leaf=0.00783606432
				16:leaf=-0.000568105315
			8:[grouplastactivetime_<430841.5] yes=17,no=18,missing=17
				17:leaf=-0.00793736987
				18:leaf=-0.002687698
		4:[groupmembercount_<139.5] yes=9,no=10,missing=9
			9:[groupfriendscount_<9.5] yes=19,no=20,missing=19
				19:leaf=-0.0128787803
				20:leaf=-0.0069922274
			10:[groupfriendscount_<16.5] yes=21,no=22,missing=21
				21:leaf=-0.0157806855
				22:leaf=-0.0128506003
	2:[groupmembercount_<38.5] yes=5,no=6,missing=5
		5:[myrecentsearchcount_7<1.5] yes=11,no=12,missing=11
			11:[groupfriendscount_<5.5] yes=23,no=24,missing=23
				23:leaf=0.0161582734
				24:leaf=0.0130830761
			12:[myrecentsearchcount_7<3.5] yes=25,no=26,missing=25
				25:leaf=0.0163316354
				26:leaf=0.0177867431
		6:[myrecentsearchcount_7<2.5] yes=13,no=14,missing=13
			13:[groupunreadmsgcount_<0.5] yes=27,no=28,missing=27
				27:leaf=0.0109111881
				28:leaf=0.00396768423
			14:[myrecentsearchcount_7<6.5] yes=29,no=30,missing=29
				29:leaf=0.0143031925
				30:leaf=0.0174444262
booster[2]:
0:[myrecentsearchcount_7<0.5] yes=1,no=2,missing=1
	1:[groupmembercount_<39.5] yes=3,no=4,missing=3
		3:[myrecentmsgcount_<1.5] yes=7,no=8,missing=7
			7:[groupmyselflastactivetime_<1608.5] yes=15,no=16,missing=15
				15:leaf=0.00128605484
				16:leaf=-0.00567009393
			8:[groupmembercount_<6.5] yes=17,no=18,missing=17
				17:leaf=0.0106935855
				18:leaf=0.00278781517
		4:[groupmembercount_<140.5] yes=9,no=10,missing=9
			9:[myrecentmsgcount_<0.5] yes=19,no=20,missing=19
				19:leaf=-0.0118295178
				20:leaf=-0.00570512563
			10:[groupfriendscount_<16.5] yes=21,no=22,missing=21
				21:leaf=-0.0157302525
				22:leaf=-0.0127519248
	2:[groupmembercount_<28.5] yes=5,no=6,missing=5
		5:[myrecentsearchcount_7<1.5] yes=11,no=12,missing=11
			11:[groupfriendscount_<5.5] yes=23,no=24,missing=23
				23:leaf=0.0159748606
				24:leaf=0.0130893383
			12:[groupmembercount_<7.5] yes=25,no=26,missing=25
				25:leaf=0.0176141001
				26:leaf=0.0162883122
		6:[myrecentsearchcount_7<2.5] yes=13,no=14,missing=13
			13:[groupunreadmsgcount_<0.5] yes=27,no=28,missing=27
				27:leaf=0.0111411596
				28:leaf=0.00376135344
			14:[myrecentsearchcount_7<7.5] yes=29,no=30,missing=29
				29:leaf=0.0145957619
				30:leaf=0.0175960604
booster[3]:
0:[myrecentsearchcount_14<0.5] yes=1,no=2,missing=1
	1:[groupmembercount_<33.5] yes=3,no=4,missing=3
		3:[myrecentmsgcount_<0.5] yes=7,no=8,missing=7
			7:[groupmyselflastactivetime_<1970.5] yes=15,no=16,missing=15
				15:leaf=0.00173857494
				16:leaf=-0.00619631633
			8:[groupmembercount_<6.5] yes=17,no=18,missing=17
				17:leaf=0.010130316
				18:leaf=0.0025129586
		4:[groupmembercount_<139.5] yes=9,no=10,missing=9
			9:[myrecentmsgcount_<0.5] yes=19,no=20,missing=19
				19:leaf=-0.0114947995
				20:leaf=-0.00563971978
			10:[groupfriendscount_<16.5] yes=21,no=22,missing=21
				21:leaf=-0.0154987387
				22:leaf=-0.0125697041
	2:[groupmembercount_<38.5] yes=5,no=6,missing=5
		5:[myrecentsearchcount_14<1.5] yes=11,no=12,missing=11
			11:[groupfriendscount_<5.5] yes=23,no=24,missing=23
				23:leaf=0.0156532321
				24:leaf=0.0125100659
			12:[groupmembercount_<8.5] yes=25,no=26,missing=25
				25:leaf=0.0172188729
				26:leaf=0.0156754702
		6:[myrecentsearchcount_14<2.5] yes=13,no=14,missing=13
			13:[groupunreadmsgcount_<0.5] yes=27,no=28,missing=27
				27:leaf=0.0101523381
				28:leaf=0.00273398962
			14:[myrecentsearchcount_14<6.5] yes=29,no=30,missing=29
				29:leaf=0.0134817557
				30:leaf=0.0167242624
booster[4]:
0:[myrecentsearchcount_7<0.5] yes=1,no=2,missing=1
	1:[groupmembercount_<36.5] yes=3,no=4,missing=3
		3:[myrecentmsgcount_<1.5] yes=7,no=8,missing=7
			7:[groupmyselflastactivetime_<1670.5] yes=15,no=16,missing=15
				15:leaf=0.00162959215
				16:leaf=-0.00541716209
			8:[groupmembercount_<6.5] yes=17,no=18,missing=17
				17:leaf=0.0104472376
				18:leaf=0.00303735142
		4:[groupmembercount_<139.5] yes=9,no=10,missing=9
			9:[myrecentmsgcount_<0.5] yes=19,no=20,missing=19
				19:leaf=-0.0115244016
				20:leaf=-0.00546016637
			10:[myrecentmsgcount_<3.5] yes=21,no=22,missing=21
				21:leaf=-0.0147499507
				22:leaf=-0.0105095487
	2:[groupmembercount_<35.5] yes=5,no=6,missing=5
		5:[myrecentsearchcount_7<1.5] yes=11,no=12,missing=11
			11:[groupfriendscount_<5.5] yes=23,no=24,missing=23
				23:leaf=0.015595994
				24:leaf=0.0126634259
			12:[myrecentsearchcount_7<3.5] yes=25,no=26,missing=25
				25:leaf=0.0159210768
				26:leaf=0.0173162818
		6:[myrecentsearchcount_7<2.5] yes=13,no=14,missing=13
			13:[grouplastactivetime_<16.5] yes=27,no=28,missing=27
				27:leaf=0.00774297444
				28:leaf=0.0123630762
			14:[myrecentsearchcount_7<6.5] yes=29,no=30,missing=29
				29:leaf=0.0139316842
				30:leaf=0.0169378687
booster[5]:
0:[myrecentsearchcount_14<0.5] yes=1,no=2,missing=1
	1:[groupmembercount_<36.5] yes=3,no=4,missing=3
		3:[myrecentmsgcount_<1.5] yes=7,no=8,missing=7
			7:[groupmyselflastactivetime_<1608.5] yes=15,no=16,missing=15
				15:leaf=0.00135209563
				16:leaf=-0.00544566661
			8:[groupmembercount_<6.5] yes=17,no=18,missing=17
				17:leaf=0.0103089893
				18:leaf=0.00267092348
		4:[groupmembercount_<140.5] yes=9,no=10,missing=9
			9:[myrecentmsgcount_<0.5] yes=19,no=20,missing=19
				19:leaf=-0.0112605691
				20:leaf=-0.00523264287
			10:[myrecentmsgcount_<1.5] yes=21,no=22,missing=21
				21:leaf=-0.0147219608
				22:leaf=-0.0113039548
	2:[groupmembercount_<36.5] yes=5,no=6,missing=5
		5:[myrecentsearchcount_7<1.5] yes=11,no=12,missing=11
			11:[groupmembercount_<6.5] yes=23,no=24,missing=23
				23:leaf=0.0155139621
				24:leaf=0.0124557354
			12:[groupmembercount_<7.5] yes=25,no=26,missing=25
				25:leaf=0.0171286501
				26:leaf=0.0157426521
		6:[myrecentsearchcount_7<2.5] yes=13,no=14,missing=13
			13:[groupunreadmsgcount_<0.5] yes=27,no=28,missing=27
				27:leaf=0.0100981435
				28:leaf=0.00250027049
			14:[myrecentsearchcount_7<6.5] yes=29,no=30,missing=29
				29:leaf=0.0139408205
				30:leaf=0.0168699101
booster[6]:
0:[myrecentsearchcount_14<0.5] yes=1,no=2,missing=1
	1:[groupmembercount_<36.5] yes=3,no=4,missing=3
		3:[myrecentmsgcount_<1.5] yes=7,no=8,missing=7
			7:[grouplastactivetime_<2060.5] yes=15,no=16,missing=15
				15:leaf=-0.00272841426
				16:leaf=-0.00768484455
			8:[groupmembercount_<6.5] yes=17,no=18,missing=17
				17:leaf=0.0101908864
				18:leaf=0.00280473707
		4:[groupmembercount_<114.5] yes=9,no=10,missing=9
			9:[myrecentmsgcount_<1.5] yes=19,no=20,missing=19
				19:leaf=-0.0106236441
				20:leaf=-0.00457267044
			10:[myrecentmsgcount_<0.5] yes=21,no=22,missing=21
				21:leaf=-0.0144860921
				22:leaf=-0.0111470493
	2:[groupmembercount_<37.5] yes=5,no=6,missing=5
		5:[myrecentsearchcount_7<1.5] yes=11,no=12,missing=11
			11:[groupfriendscount_<3.5] yes=23,no=24,missing=23
				23:leaf=0.0158733707
				24:leaf=0.0126321102
			12:[groupmembercount_<8.5] yes=25,no=26,missing=25
				25:leaf=0.0168975946
				26:leaf=0.0154674882
		6:[myrecentsearchcount_7<2.5] yes=13,no=14,missing=13
			13:[myrecentsearchcount_7<0.5] yes=27,no=28,missing=27
				27:leaf=-0.003756847
				28:leaf=0.00892734714
			14:[myrecentsearchcount_7<6.5] yes=29,no=30,missing=29
				29:leaf=0.0136287985
				30:leaf=0.0165907871
booster[7]:
0:[myrecentsearchcount_14<0.5] yes=1,no=2,missing=1
	1:[groupmembercount_<36.5] yes=3,no=4,missing=3
		3:[myrecentmsgcount_<1.5] yes=7,no=8,missing=7
			7:[grouplastactivetime_<2060.5] yes=15,no=16,missing=15
				15:leaf=-0.00244365493
				16:leaf=-0.00770426728
			8:[groupmembercount_<6.5] yes=17,no=18,missing=17
				17:leaf=0.0102250958
				18:leaf=0.00268508261
		4:[myrecentmsgcount_<0.5] yes=9,no=10,missing=9
			9:[groupunreadmsgcount_<0.5] yes=19,no=20,missing=19
				19:leaf=-0.0115140099
				20:leaf=-0.014952736
			10:[groupmembercount_<163.5] yes=21,no=22,missing=21
				21:leaf=-0.00561140105
				22:leaf=-0.0118187638
	2:[groupmembercount_<37.5] yes=5,no=6,missing=5
		5:[myrecentsearchcount_14<1.5] yes=11,no=12,missing=11
			11:[groupmembercount_<8.5] yes=23,no=24,missing=23
				23:leaf=0.0149547569
				24:leaf=0.0119287567
			12:[groupmembercount_<6.5] yes=25,no=26,missing=25
				25:leaf=0.0168438256
				26:leaf=0.0152852926
		6:[myrecentsearchcount_14<2.5] yes=13,no=14,missing=13
			13:[groupunreadmsgcount_<0.5] yes=27,no=28,missing=27
				27:leaf=0.00995528791
				28:leaf=0.00236710324
			14:[myrecentsearchcount_14<6.5] yes=29,no=30,missing=29
				29:leaf=0.012911249
				30:leaf=0.0160680339
booster[8]:
0:[myrecentsearchcount_14<0.5] yes=1,no=2,missing=1
	1:[myrecentmsgcount_<1.5] yes=3,no=4,missing=3
		3:[groupunreadmsgcount_<0.5] yes=7,no=8,missing=7
			7:[groupmyselflastactivetime_<1847.5] yes=15,no=16,missing=15
				15:leaf=-0.00112354802
				16:leaf=-0.00832042843
			8:[languageversion_others<0.5] yes=17,no=18,missing=17
				17:leaf=-0.0103557203
				18:leaf=-0.0145029183
		4:[grouplastactivetime_<12.5] yes=9,no=10,missing=9
			9:[languageversion_others<0.5] yes=19,no=20,missing=19
				19:leaf=0.00105380639
				20:leaf=-0.00622782391
			10:[groupfriendscount_<6.5] yes=21,no=22,missing=21
				21:leaf=0.00805348437
				22:leaf=0.00207717321
	2:[myrecentsearchcount_7<1.5] yes=5,no=6,missing=5
		5:[groupunreadmsgcount_<0.5] yes=11,no=12,missing=11
			11:[groupfriendscount_<5.5] yes=23,no=24,missing=23
				23:leaf=0.014611261
				24:leaf=0.011278796
			12:[myrecentmsgcount_<10.5] yes=25,no=26,missing=25
				25:leaf=0.00209382433
				26:leaf=0.00859942567
		6:[myrecentsearchcount_7<4.5] yes=13,no=14,missing=13
			13:[groupfriendscount_<6.5] yes=27,no=28,missing=27
				27:leaf=0.0158985294
				28:leaf=0.0135105932
			14:[myrecentsearchcount_7<10.5] yes=29,no=30,missing=29
				29:leaf=0.0162318815
				30:leaf=0.0173688903
booster[9]:
0:[myrecentsearchcount_14<0.5] yes=1,no=2,missing=1
	1:[myrecentmsgcount_<1.5] yes=3,no=4,missing=3
		3:[groupunreadmsgcount_<0.5] yes=7,no=8,missing=7
			7:[groupmyselflastactivetime_<2012.5] yes=15,no=16,missing=15
				15:leaf=-0.00131633016
				16:leaf=-0.00831272174
			8:[languageversion_others<0.5] yes=17,no=18,missing=17
				17:leaf=-0.0101202279
				18:leaf=-0.0142659163
		4:[grouplastactivetime_<12.5] yes=9,no=10,missing=9
			9:[languageversion_others<0.5] yes=19,no=20,missing=19
				19:leaf=0.000979759381
				20:leaf=-0.00613203319
			10:[myrecentmsgcount_<11.5] yes=21,no=22,missing=21
				21:leaf=0.00204512849
				22:leaf=0.00801153481
	2:[myrecentsearchcount_14<1.5] yes=5,no=6,missing=5
		5:[groupunreadmsgcount_<0.5] yes=11,no=12,missing=11
			11:[groupfriendscount_<9.5] yes=23,no=24,missing=23
				23:leaf=0.0138797853
				24:leaf=0.0106022907
			12:[myrecentmsgcount_<1.5] yes=25,no=26,missing=25
				25:leaf=-0.000343020773
				26:leaf=0.00676898239
		6:[groupfriendscount_<6.5] yes=13,no=14,missing=13
			13:[myrecentsearchcount_14<3.5] yes=27,no=28,missing=27
				27:leaf=0.0155033963
				28:leaf=0.0167273879
			14:[myrecentsearchcount_14<3.5] yes=29,no=30,missing=29
				29:leaf=0.0128150163
				30:leaf=0.0153784435
booster[10]:
0:[myrecentsearchcount_30<0.5] yes=1,no=2,missing=1
	1:[groupmembercount_<34.5] yes=3,no=4,missing=3
		3:[myrecentmsgcount_<0.5] yes=7,no=8,missing=7
			7:[groupmyselflastactivetime_<1991.5] yes=15,no=16,missing=15
				15:leaf=0.00196199655
				16:leaf=-0.00553760445
			8:[groupmembercount_<7.5] yes=17,no=18,missing=17
				17:leaf=0.00909186527
				18:leaf=0.00212665554
		4:[groupmembercount_<111.5] yes=9,no=10,missing=9
			9:[myrecentmsgcount_<1.5] yes=19,no=20,missing=19
				19:leaf=-0.0102803838
				20:leaf=-0.00395870302
			10:[groupfriendscount_<27.5] yes=21,no=22,missing=21
				21:leaf=-0.0144097377
				22:leaf=-0.0108084315
	2:[myrecentsearchcount_7<0.5] yes=5,no=6,missing=5
		5:[groupmembercount_<32.5] yes=11,no=12,missing=11
			11:[groupmembercount_<10.5] yes=23,no=24,missing=23
				23:leaf=0.0106355855
				24:leaf=0.00428340957
			12:[groupmembercount_<226.5] yes=25,no=26,missing=25
				25:leaf=-0.000891712436
				26:leaf=-0.00976230949
		6:[groupmembercount_<28.5] yes=13,no=14,missing=13
			13:[myrecentsearchcount_7<3.5] yes=27,no=28,missing=27
				27:leaf=0.0142021924
				28:leaf=0.0163853075
			14:[myrecentsearchcount_7<2.5] yes=29,no=30,missing=29
				29:leaf=0.00912290253
				30:leaf=0.0146020167
booster[11]:
0:[myrecentsearchcount_30<0.5] yes=1,no=2,missing=1
	1:[groupmembercount_<34.5] yes=3,no=4,missing=3
		3:[myrecentmsgcount_<0.5] yes=7,no=8,missing=7
			7:[groupmyselflastactivetime_<2202.5] yes=15,no=16,missing=15
				15:leaf=0.0014294734
				16:leaf=-0.00559977395
			8:[groupmembercount_<9.5] yes=17,no=18,missing=17
				17:leaf=0.00820837822
				18:leaf=0.00129529508
		4:[groupmembercount_<131.5] yes=9,no=10,missing=9
			9:[myrecentmsgcount_<1.5] yes=19,no=20,missing=19
				19:leaf=-0.0103214169
				20:leaf=-0.00420265971
			10:[groupfriendscount_<27.5] yes=21,no=22,missing=21
				21:leaf=-0.0144064706
				22:leaf=-0.0110899555
	2:[groupmembercount_<42.5] yes=5,no=6,missing=5
		5:[groupmembercount_<8.5] yes=11,no=12,missing=11
			11:[myrecentmsgcount_<55.5] yes=23,no=24,missing=23
				23:leaf=0.0147402175
				24:leaf=0.0160174891
			12:[myrecentsearchcount_30<2.5] yes=25,no=26,missing=25
				25:leaf=0.011833393
				26:leaf=0.0146809286
		6:[myrecentsearchcount_30<1.5] yes=13,no=14,missing=13
			13:[groupunreadmsgcount_<0.5] yes=27,no=28,missing=27
				27:leaf=0.00821239874
				28:leaf=-5.46329029e-05
			14:[myrecentsearchcount_30<4.5] yes=29,no=30,missing=29
				29:leaf=0.0109382486
				30:leaf=0.0146657377
booster[12]:
0:[myrecentsearchcount_14<0.5] yes=1,no=2,missing=1
	1:[groupmembercount_<33.5] yes=3,no=4,missing=3
		3:[myrecentmsgcount_<0.5] yes=7,no=8,missing=7
			7:[groupmyselflastactivetime_<2012.5] yes=15,no=16,missing=15
				15:leaf=0.00206179591
				16:leaf=-0.00534478435
			8:[groupmembercount_<8.5] yes=17,no=18,missing=17
				17:leaf=0.00849132799
				18:leaf=0.00174455112
		4:[groupmembercount_<113.5] yes=9,no=10,missing=9
			9:[myrecentmsgcount_<0.5] yes=19,no=20,missing=19
				19:leaf=-0.0101845246
				20:leaf=-0.00450299215
			10:[groupfriendscount_<28.5] yes=21,no=22,missing=21
				21:leaf=-0.0141623747
				22:leaf=-0.0108757112
	2:[groupmembercount_<34.5] yes=5,no=6,missing=5
		5:[myrecentsearchcount_7<1.5] yes=11,no=12,missing=11
			11:[groupmembercount_<9.5] yes=23,no=24,missing=23
				23:leaf=0.0142285395
				24:leaf=0.0111449277
			12:[groupfriendscount_<5.5] yes=25,no=26,missing=25
				25:leaf=0.016052423
				26:leaf=0.0145835811
		6:[myrecentsearchcount_7<1.5] yes=13,no=14,missing=13
			13:[groupmembercount_<176.5] yes=27,no=28,missing=27
				27:leaf=0.00876181666
				28:leaf=0.00296795485
			14:[myrecentsearchcount_7<4.5] yes=29,no=30,missing=29
				29:leaf=0.0119571062
				30:leaf=0.01534482
booster[13]:
0:[myrecentsearchcount_14<0.5] yes=1,no=2,missing=1
	1:[myrecentmsgcount_<1.5] yes=3,no=4,missing=3
		3:[groupunreadmsgcount_<0.5] yes=7,no=8,missing=7
			7:[languageversion_others<0.5] yes=15,no=16,missing=15
				15:leaf=-0.00400167285
				16:leaf=-0.00889281835
			8:[languageversion_others<0.5] yes=17,no=18,missing=17
				17:leaf=-0.0101381196
				18:leaf=-0.0139056146
		4:[grouplastactivetime_<12.5] yes=9,no=10,missing=9
			9:[languageversion_others<0.5] yes=19,no=20,missing=19
				19:leaf=0.00119086402
				20:leaf=-0.00587364286
			10:[myrecentmsgcount_<11.5] yes=21,no=22,missing=21
				21:leaf=0.00206095329
				22:leaf=0.00779885706
	2:[myrecentsearchcount_7<1.5] yes=5,no=6,missing=5
		5:[groupunreadmsgcount_<0.5] yes=11,no=12,missing=11
			11:[groupfriendscount_<8.5] yes=23,no=24,missing=23
				23:leaf=0.0135492058
				24:leaf=0.0102045126
			12:[myrecentmsgcount_<33.5] yes=25,no=26,missing=25
				25:leaf=0.00237304438
				26:leaf=0.00968417712
		6:[myrecentsearchcount_7<3.5] yes=13,no=14,missing=13
			13:[groupfriendscount_<5.5] yes=27,no=28,missing=27
				27:leaf=0.0152763454
				28:leaf=0.0127562545
			14:[myrecentsearchcount_7<10.5] yes=29,no=30,missing=29
				29:leaf=0.0153244222
				30:leaf=0.0167073477
booster[14]:
0:[myrecentsearchcount_14<0.5] yes=1,no=2,missing=1
	1:[groupmembercount_<40.5] yes=3,no=4,missing=3
		3:[myrecentmsgcount_<0.5] yes=7,no=8,missing=7
			7:[groupmyselflastactivetime_<2012.5] yes=15,no=16,missing=15
				15:leaf=0.00177983788
				16:leaf=-0.00541861262
			8:[groupmembercount_<8.5] yes=17,no=18,missing=17
				17:leaf=0.00834744889
				18:leaf=0.00143363641
		4:[groupmembercount_<104.5] yes=9,no=10,missing=9
			9:[myrecentmsgcount_<1.5] yes=19,no=20,missing=19
				19:leaf=-0.00992901623
				20:leaf=-0.00415103929
			10:[myrecentmsgcount_<1.5] yes=21,no=22,missing=21
				21:leaf=-0.0137309907
				22:leaf=-0.00981115364
	2:[groupmembercount_<43.5] yes=5,no=6,missing=5
		5:[myrecentsearchcount_7<1.5] yes=11,no=12,missing=11
			11:[groupmembercount_<9.5] yes=23,no=24,missing=23
				23:leaf=0.0139904981
				24:leaf=0.0110335089
			12:[groupfriendscount_<5.5] yes=25,no=26,missing=25
				25:leaf=0.0157626681
				26:leaf=0.0142860329
		6:[myrecentsearchcount_7<1.5] yes=13,no=14,missing=13
			13:[groupunreadmsgcount_<0.5] yes=27,no=28,missing=27
				27:leaf=0.00807965361
				28:leaf=0.000704762468
			14:[myrecentsearchcount_7<4.5] yes=29,no=30,missing=29
				29:leaf=0.0115937386
				30:leaf=0.015151592
booster[15]:
0:[myrecentsearchcount_14<0.5] yes=1,no=2,missing=1
	1:[groupmembercount_<33.5] yes=3,no=4,missing=3
		3:[myrecentmsgcount_<0.5] yes=7,no=8,missing=7
			7:[groupmyselflastactivetime_<2012.5] yes=15,no=16,missing=15
				15:leaf=0.00211966946
				16:leaf=-0.00520583242
			8:[groupmembercount_<8.5] yes=17,no=18,missing=17
				17:leaf=0.00831086654
				18:leaf=0.00163294643
		4:[groupmembercount_<112.5] yes=9,no=10,missing=9
			9:[myrecentmsgcount_<1.5] yes=19,no=20,missing=19
				19:leaf=-0.00949942321
				20:leaf=-0.00373684755
			10:[groupfriendscount_<27.5] yes=21,no=22,missing=21
				21:leaf=-0.0138767967
				22:leaf=-0.0104113827
	2:[groupmembercount_<34.5] yes=5,no=6,missing=5
		5:[myrecentsearchcount_7<1.5] yes=11,no=12,missing=11
			11:[groupmembercount_<7.5] yes=23,no=24,missing=23
				23:leaf=0.0142322546
				24:leaf=0.0112998737
			12:[groupfriendscount_<5.5] yes=25,no=26,missing=25
				25:leaf=0.015691245
				26:leaf=0.0142266452
		6:[myrecentsearchcount_7<1.5] yes=13,no=14,missing=13
			13:[groupunreadmsgcount_<0.5] yes=27,no=28,missing=27
				27:leaf=0.00861864164
				28:leaf=0.000898471393
			14:[myrecentsearchcount_7<4.5] yes=29,no=30,missing=29
				29:leaf=0.0115652336
				30:leaf=0.0150720654
booster[16]:
0:[myrecentsearchcount_14<0.5] yes=1,no=2,missing=1
	1:[groupmembercount_<30.5] yes=3,no=4,missing=3
		3:[grouplastactivetime_<1168.5] yes=7,no=8,missing=7
			7:[groupmembercount_<6.5] yes=15,no=16,missing=15
				15:leaf=0.00790606439
				16:leaf=0.000724822865
			8:[grouplastactivetime_<430836] yes=17,no=18,missing=17
				17:leaf=-0.00711066602
				18:leaf=0.000217413821
		4:[groupmembercount_<98.5] yes=9,no=10,missing=9
			9:[groupfriendscount_<14.5] yes=19,no=20,missing=19
				19:leaf=-0.00928432029
				20:leaf=-0.00450299773
			10:[groupfriendscount_<27.5] yes=21,no=22,missing=21
				21:leaf=-0.0136094494
				22:leaf=-0.00979908369
	2:[groupmembercount_<40.5] yes=5,no=6,missing=5
		5:[myrecentsearchcount_7<1.5] yes=11,no=12,missing=11
			11:[groupmembercount_<5.5] yes=23,no=24,missing=23
				23:leaf=0.0145267379
				24:leaf=0.0115719279
			12:[groupfriendscount_<5.5] yes=25,no=26,missing=25
				25:leaf=0.0155623583
				26:leaf=0.0140953939
		6:[myrecentsearchcount_7<1.5] yes=13,no=14,missing=13
			13:[groupunreadmsgcount_<0.5] yes=27,no=28,missing=27
				27:leaf=0.00786763057
				28:leaf=-0.000419426389
			14:[myrecentsearchcount_7<4.5] yes=29,no=30,missing=29
				29:leaf=0.0110700345
				30:leaf=0.015052042
booster[17]:
0:[myrecentsearchcount_14<0.5] yes=1,no=2,missing=1
	1:[groupmembercount_<50.5] yes=3,no=4,missing=3
		3:[myrecentmsgcount_<2.5] yes=7,no=8,missing=7
			7:[groupmyselflastactivetime_<1464.5] yes=15,no=16,missing=15
				15:leaf=0.00113396347
				16:leaf=-0.00510803144
			8:[groupmembercount_<8.5] yes=17,no=18,missing=17
				17:leaf=0.00860381499
				18:leaf=0.00161818229
		4:[myrecentmsgcount_<0.5] yes=9,no=10,missing=9
			9:[groupunreadmsgcount_<1.5] yes=19,no=20,missing=19
				19:leaf=-0.0111973006
				20:leaf=-0.0139359673
			10:[groupmembercount_<206.5] yes=21,no=22,missing=21
				21:leaf=-0.0066075949
				22:leaf=-0.0111702988
	2:[groupmembercount_<47.5] yes=5,no=6,missing=5
		5:[myrecentsearchcount_7<1.5] yes=11,no=12,missing=11
			11:[groupmembercount_<7.5] yes=23,no=24,missing=23
				23:leaf=0.0138914715
				24:leaf=0.0110944314
			12:[myrecentsearchcount_7<4.5] yes=25,no=26,missing=25
				25:leaf=0.0141565753
				26:leaf=0.0156539585
		6:[myrecentsearchcount_7<1.5] yes=13,no=14,missing=13
			13:[groupunreadmsgcount_<0.5] yes=27,no=28,missing=27
				27:leaf=0.00746225473
				28:leaf=-0.000964463979
			14:[myrecentsearchcount_7<4.5] yes=29,no=30,missing=29
				29:leaf=0.0110986996
				30:leaf=0.015047376
booster[18]:
0:[myrecentsearchcount_14<0.5] yes=1,no=2,missing=1
	1:[groupmembercount_<30.5] yes=3,no=4,missing=3
		3:[grouplastactivetime_<1011.5] yes=7,no=8,missing=7
			7:[groupmembercount_<7.5] yes=15,no=16,missing=15
				15:leaf=0.0073428899
				16:leaf=0.000422472571
			8:[grouplastactivetime_<430846] yes=17,no=18,missing=17
				17:leaf=-0.00657563424
				18:leaf=0.000363759726
		4:[groupmembercount_<74.5] yes=9,no=10,missing=9
			9:[groupfriendscount_<14.5] yes=19,no=20,missing=19
				19:leaf=-0.00874752365
				20:leaf=-0.00353204901
			10:[groupfriendscount_<20.5] yes=21,no=22,missing=21
				21:leaf=-0.0132622346
				22:leaf=-0.00964423455
	2:[groupmembercount_<44.5] yes=5,no=6,missing=5
		5:[groupfriendscount_<4.5] yes=11,no=12,missing=11
			11:[myrecentsearchcount_14<1.5] yes=23,no=24,missing=23
				23:leaf=0.0140945483
				24:leaf=0.0153958173
			12:[myrecentsearchcount_14<2.5] yes=25,no=26,missing=25
				25:leaf=0.0118038068
				26:leaf=0.014344248
		6:[myrecentsearchcount_14<1.5] yes=13,no=14,missing=13
			13:[groupunreadmsgcount_<0.5] yes=27,no=28,missing=27
				27:leaf=0.00787707698
				28:leaf=-0.000732743414
			14:[myrecentsearchcount_14<4.5] yes=29,no=30,missing=29
				29:leaf=0.0104291886
				30:leaf=0.0143246911
booster[19]:
0:[myrecentsearchcount_14<0.5] yes=1,no=2,missing=1
	1:[myrecentmsgcount_<2.5] yes=3,no=4,missing=3
		3:[groupunreadmsgcount_<0.5] yes=7,no=8,missing=7
			7:[languageversion_others<0.5] yes=15,no=16,missing=15
				15:leaf=-0.0036210625
				16:leaf=-0.00807710458
			8:[groupfriendscount_<5.5] yes=17,no=18,missing=17
				17:leaf=-0.0144181959
				18:leaf=-0.0116642332
		4:[groupfriendscount_<6.5] yes=9,no=10,missing=9
			9:[groupunreadmsgcount_<0.5] yes=19,no=20,missing=19
				19:leaf=0.0072857365
				20:leaf=-0.00452534808
			10:[groupunreadmsgcount_<1.5] yes=21,no=22,missing=21
				21:leaf=-0.000107597036
				22:leaf=-0.00727433804
	2:[myrecentsearchcount_7<1.5] yes=5,no=6,missing=5
		5:[groupunreadmsgcount_<0.5] yes=11,no=12,missing=11
			11:[groupfriendscount_<8.5] yes=23,no=24,missing=23
				23:leaf=0.0129415328
				24:leaf=0.00953258667
			12:[myrecentmsgcount_<6.5] yes=25,no=26,missing=25
				25:leaf=-0.000822248461
				26:leaf=0.00699306885
		6:[myrecentsearchcount_7<4.5] yes=13,no=14,missing=13
			13:[groupfriendscount_<6.5] yes=27,no=28,missing=27
				27:leaf=0.014653611
				28:leaf=0.0121655883
			14:[myrecentsearchcount_7<8.5] yes=29,no=30,missing=29
				29:leaf=0.014867465
				30:leaf=0.0158261042
booster[20]:
0:[myrecentsearchcount_14<0.5] yes=1,no=2,missing=1
	1:[groupmembercount_<30.5] yes=3,no=4,missing=3
		3:[grouplastactivetime_<1081.5] yes=7,no=8,missing=7
			7:[groupmembercount_<8.5] yes=15,no=16,missing=15
				15:leaf=0.00675550429
				16:leaf=0.000100969621
			8:[grouplastactivetime_<430836] yes=17,no=18,missing=17
				17:leaf=-0.00659037149
				18:leaf=0.000152618959
		4:[groupmembercount_<98.5] yes=9,no=10,missing=9
			9:[groupmyselflastactivetime_<2062.5] yes=19,no=20,missing=19
				19:leaf=-0.00371178589
				20:leaf=-0.0080449488
			10:[groupmyselflastactivetime_<1510.5] yes=21,no=22,missing=21
				21:leaf=-0.00960515905
				22:leaf=-0.0126807364
	2:[groupmembercount_<47.5] yes=5,no=6,missing=5
		5:[myrecentsearchcount_7<1.5] yes=11,no=12,missing=11
			11:[groupmembercount_<5.5] yes=23,no=24,missing=23
				23:leaf=0.0140196094
				24:leaf=0.0112396702
			12:[groupmembercount_<7.5] yes=25,no=26,missing=25
				25:leaf=0.0150643522
				26:leaf=0.0137127992
		6:[myrecentsearchcount_7<1.5] yes=13,no=14,missing=13
			13:[myrecentsearchcount_7<0.5] yes=27,no=28,missing=27
				27:leaf=-0.00548453629
				28:leaf=0.00583944144
			14:[myrecentsearchcount_7<4.5] yes=29,no=30,missing=29
				29:leaf=0.010738804
				30:leaf=0.0146946618
booster[21]:
0:[myrecentsearchcount_14<0.5] yes=1,no=2,missing=1
	1:[groupmembercount_<43.5] yes=3,no=4,missing=3
		3:[groupmembercount_<8.5] yes=7,no=8,missing=7
			7:[grouplastactivetime_<1047.5] yes=15,no=16,missing=15
				15:leaf=0.00671089021
				16:leaf=-0.00441761082
			8:[grouplastactivetime_<1530.5] yes=17,no=18,missing=17
				17:leaf=-0.000873430108
				18:leaf=-0.00789533928
		4:[groupmembercount_<98.5] yes=9,no=10,missing=9
			9:[groupfriendscount_<14.5] yes=19,no=20,missing=19
				19:leaf=-0.0100665074
				20:leaf=-0.00469591329
			10:[groupfriendscount_<28.5] yes=21,no=22,missing=21
				21:leaf=-0.0129786413
				22:leaf=-0.00937191676
	2:[groupmembercount_<44.5] yes=5,no=6,missing=5
		5:[groupmembercount_<7.5] yes=11,no=12,missing=11
			11:[myrecentsearchcount_14<1.5] yes=23,no=24,missing=23
				23:leaf=0.0135798678
				24:leaf=0.0148719503
			12:[myrecentsearchcount_14<2.5] yes=25,no=26,missing=25
				25:leaf=0.0113578038
				26:leaf=0.0139580704
		6:[myrecentsearchcount_14<2.5] yes=13,no=14,missing=13
			13:[groupunreadmsgcount_<1.5] yes=27,no=28,missing=27
				27:leaf=0.00821738783
				28:leaf=0.000166155747
			14:[myrecentsearchcount_14<5.5] yes=29,no=30,missing=29
				29:leaf=0.0115545047
				30:leaf=0.01434856
booster[22]:
0:[myrecentsearchcount_7<0.5] yes=1,no=2,missing=1
	1:[groupmembercount_<30.5] yes=3,no=4,missing=3
		3:[myrecentmsgcount_<0.5] yes=7,no=8,missing=7
			7:[groupmyselflastactivetime_<1322.5] yes=15,no=16,missing=15
				15:leaf=0.00376132294
				16:leaf=-0.00477312459
			8:[groupmembercount_<7.5] yes=17,no=18,missing=17
				17:leaf=0.00813040789
				18:leaf=0.00210445281
		4:[groupmembercount_<98.5] yes=9,no=10,missing=9
			9:[myrecentmsgcount_<0.5] yes=19,no=20,missing=19
				19:leaf=-0.00879384112
				20:leaf=-0.00344712287
			10:[myrecentmsgcount_<0.5] yes=21,no=22,missing=21
				21:leaf=-0.0127525693
				22:leaf=-0.00937329419
	2:[groupmembercount_<47.5] yes=5,no=6,missing=5
		5:[myrecentsearchcount_7<2.5] yes=11,no=12,missing=11
			11:[groupmembercount_<7.5] yes=23,no=24,missing=23
				23:leaf=0.0138351806
				24:leaf=0.011389249
			12:[groupmembercount_<7.5] yes=25,no=26,missing=25
				25:leaf=0.0151350861
				26:leaf=0.0140412459
		6:[myrecentsearchcount_7<1.5] yes=13,no=14,missing=13
			13:[grouplastactivetime_<24.5] yes=27,no=28,missing=27
				27:leaf=0.00409278693
				28:leaf=0.0102918874
			14:[myrecentsearchcount_7<5.5] yes=29,no=30,missing=29
				29:leaf=0.0106925638
				30:leaf=0.0147270514
booster[23]:
0:[myrecentsearchcount_14<0.5] yes=1,no=2,missing=1
	1:[groupmembercount_<30.5] yes=3,no=4,missing=3
		3:[grouplastactivetime_<1248.5] yes=7,no=8,missing=7
			7:[groupmembercount_<7.5] yes=15,no=16,missing=15
				15:leaf=0.00694299582
				16:leaf=0.000290403608
			8:[grouplastactivetime_<430836] yes=17,no=18,missing=17
				17:leaf=-0.00681291847
				18:leaf=0.000394136121
		4:[groupmembercount_<98.5] yes=9,no=10,missing=9
			9:[groupfriendscount_<14.5] yes=19,no=20,missing=19
				19:leaf=-0.00903922226
				20:leaf=-0.00396279944
			10:[groupfriendscount_<20.5] yes=21,no=22,missing=21
				21:leaf=-0.0130297476
				22:leaf=-0.0094709387
	2:[groupmembercount_<37.5] yes=5,no=6,missing=5
		5:[groupfriendscount_<4.5] yes=11,no=12,missing=11
			11:[myrecentsearchcount_14<1.5] yes=23,no=24,missing=23
				23:leaf=0.0135305757
				24:leaf=0.0148002142
			12:[myrecentsearchcount_14<2.5] yes=25,no=26,missing=25
				25:leaf=0.01124164
				26:leaf=0.0138075491
		6:[myrecentsearchcount_14<1.5] yes=13,no=14,missing=13
			13:[groupunreadmsgcount_<1.5] yes=27,no=28,missing=27
				27:leaf=0.00742832478
				28:leaf=-0.00149054732
			14:[myrecentsearchcount_14<4.5] yes=29,no=30,missing=29
				29:leaf=0.0102211041
				30:leaf=0.0137726385
booster[24]:
0:[myrecentsearchcount_14<0.5] yes=1,no=2,missing=1
	1:[myrecentmsgcount_<1.5] yes=3,no=4,missing=3
		3:[groupunreadmsgcount_<0.5] yes=7,no=8,missing=7
			7:[languageversion_others<0.5] yes=15,no=16,missing=15
				15:leaf=-0.0032732524
				16:leaf=-0.00822319742
			8:[groupfriendscount_<7.5] yes=17,no=18,missing=17
				17:leaf=-0.0137362704
				18:leaf=-0.0110961879
		4:[groupunreadmsgcount_<0.5] yes=9,no=10,missing=9
			9:[groupfriendscount_<5.5] yes=19,no=20,missing=19
				19:leaf=0.00685367826
				20:leaf=0.000464754383
			10:[groupunreadmsgcount_<7.5] yes=21,no=22,missing=21
				21:leaf=-0.00395298749
				22:leaf=-0.00882962719
	2:[myrecentsearchcount_14<1.5] yes=5,no=6,missing=5
		5:[groupunreadmsgcount_<0.5] yes=11,no=12,missing=11
			11:[groupfriendscount_<7.5] yes=23,no=24,missing=23
				23:leaf=0.0126151554
				24:leaf=0.00935286097
			12:[groupunreadmsgcount_<17.5] yes=25,no=26,missing=25
				25:leaf=0.00518415123
				26:leaf=-0.00264968327
		6:[myrecentsearchcount_14<3.5] yes=13,no=14,missing=13
			13:[groupfriendscount_<5.5] yes=27,no=28,missing=27
				27:leaf=0.0139205083
				28:leaf=0.0115326317
			14:[groupfriendscount_<6.5] yes=29,no=30,missing=29
				29:leaf=0.0148499887
				30:leaf=0.0137391901
booster[25]:
0:[myrecentsearchcount_14<0.5] yes=1,no=2,missing=1
	1:[groupmembercount_<42.5] yes=3,no=4,missing=3
		3:[myrecentmsgcount_<1.5] yes=7,no=8,missing=7
			7:[groupmyselflastactivetime_<1962.5] yes=15,no=16,missing=15
				15:leaf=0.000610114599
				16:leaf=-0.0046211509
			8:[groupmembercount_<7.5] yes=17,no=18,missing=17
				17:leaf=0.00824833009
				18:leaf=0.00211744383
		4:[groupmembercount_<102.5] yes=9,no=10,missing=9
			9:[groupfriendscount_<23.5] yes=19,no=20,missing=19
				19:leaf=-0.00917452946
				20:leaf=-0.00398526946
			10:[groupfriendscount_<13.5] yes=21,no=22,missing=21
				21:leaf=-0.0134016275
				22:leaf=-0.00989335775
	2:[groupmembercount_<52.5] yes=5,no=6,missing=5
		5:[myrecentsearchcount_7<1.5] yes=11,no=12,missing=11
			11:[groupmembercount_<7.5] yes=23,no=24,missing=23
				23:leaf=0.0131358514
				24:leaf=0.0102724237
			12:[myrecentsearchcount_7<4.5] yes=25,no=26,missing=25
				25:leaf=0.0133730471
				26:leaf=0.0147052845
		6:[myrecentsearchcount_7<1.5] yes=13,no=14,missing=13
			13:[myrecentsearchcount_7<0.5] yes=27,no=28,missing=27
				27:leaf=-0.00626691338
				28:leaf=0.00570110884
			14:[myrecentsearchcount_7<2.5] yes=29,no=30,missing=29
				29:leaf=0.00935344305
				30:leaf=0.0127416449
booster[26]:
0:[myrecentsearchcount_7<0.5] yes=1,no=2,missing=1
	1:[groupmembercount_<36.5] yes=3,no=4,missing=3
		3:[myrecentmsgcount_<1.5] yes=7,no=8,missing=7
			7:[groupmyselflastactivetime_<1942.5] yes=15,no=16,missing=15
				15:leaf=0.00129924866
				16:leaf=-0.00427958276
			8:[groupmembercount_<7.5] yes=17,no=18,missing=17
				17:leaf=0.00814549811
				18:leaf=0.00228000944
		4:[groupmembercount_<102.5] yes=9,no=10,missing=9
			9:[groupfriendscount_<13.5] yes=19,no=20,missing=19
				19:leaf=-0.00956744794
				20:leaf=-0.00451859972
			10:[groupfriendscount_<14.5] yes=21,no=22,missing=21
				21:leaf=-0.01317525
				22:leaf=-0.00962524954
	2:[groupmembercount_<52.5] yes=5,no=6,missing=5
		5:[myrecentsearchcount_7<2.5] yes=11,no=12,missing=11
			11:[groupmembercount_<6.5] yes=23,no=24,missing=23
				23:leaf=0.0135949822
				24:leaf=0.0111618321
			12:[myrecentsearchcount_7<5.5] yes=25,no=26,missing=25
				25:leaf=0.0136911292
				26:leaf=0.0148062585
		6:[myrecentsearchcount_7<1.5] yes=13,no=14,missing=13
			13:[grouplastactivetime_<40.5] yes=27,no=28,missing=27
				27:leaf=0.0041760141
				28:leaf=0.0100488327
			14:[myrecentsearchcount_7<4.5] yes=29,no=30,missing=29
				29:leaf=0.0103287185
				30:leaf=0.0136002898
booster[27]:
0:[myrecentsearchcount_7<0.5] yes=1,no=2,missing=1
	1:[groupmembercount_<42.5] yes=3,no=4,missing=3
		3:[myrecentmsgcount_<1.5] yes=7,no=8,missing=7
			7:[grouplastactivetime_<1770.5] yes=15,no=16,missing=15
				15:leaf=-0.00186381489
				16:leaf=-0.00627817912
			8:[groupmembercount_<8.5] yes=17,no=18,missing=17
				17:leaf=0.00781738292
				18:leaf=0.00190459099
		4:[groupfriendscount_<14.5] yes=9,no=10,missing=9
			9:[groupmembercount_<148.5] yes=19,no=20,missing=19
				19:leaf=-0.0101332683
				20:leaf=-0.0135186967
			10:[groupmembercount_<130.5] yes=21,no=22,missing=21
				21:leaf=-0.00508673117
				22:leaf=-0.00968340784
	2:[groupmembercount_<52.5] yes=5,no=6,missing=5
		5:[myrecentsearchcount_7<2.5] yes=11,no=12,missing=11
			11:[groupmembercount_<6.5] yes=23,no=24,missing=23
				23:leaf=0.0135690458
				24:leaf=0.0110799475
			12:[myrecentsearchcount_7<5.5] yes=25,no=26,missing=25
				25:leaf=0.0136107523
				26:leaf=0.014690455
		6:[myrecentsearchcount_7<1.5] yes=13,no=14,missing=13
			13:[groupunreadmsgcount_<0.5] yes=27,no=28,missing=27
				27:leaf=0.00715170568
				28:leaf=0.000777941081
			14:[myrecentsearchcount_7<4.5] yes=29,no=30,missing=29
				29:leaf=0.0102216834
				30:leaf=0.0134719657
booster[28]:
0:[myrecentsearchcount_7<0.5] yes=1,no=2,missing=1
	1:[myrecentmsgcount_<1.5] yes=3,no=4,missing=3
		3:[groupunreadmsgcount_<0.5] yes=7,no=8,missing=7
			7:[languageversion_others<0.5] yes=15,no=16,missing=15
				15:leaf=-0.00300904992
				16:leaf=-0.0080880411
			8:[groupmyselflastactivetime_<2224.5] yes=17,no=18,missing=17
				17:leaf=-0.00936135184
				18:leaf=-0.0123345312
		4:[grouplastactivetime_<11.5] yes=9,no=10,missing=9
			9:[groupunreadmsgcount_<1.5] yes=19,no=20,missing=19
				19:leaf=-0.00142541074
				20:leaf=-0.00782662258
			10:[myrecentmsgcount_<9.5] yes=21,no=22,missing=21
				21:leaf=0.00185442239
				22:leaf=0.00678870082
	2:[myrecentsearchcount_7<1.5] yes=5,no=6,missing=5
		5:[groupunreadmsgcount_<0.5] yes=11,no=12,missing=11
			11:[grouplastactivetime_<46.5] yes=23,no=24,missing=23
				23:leaf=0.0101470519
				24:leaf=0.0125147598
			12:[groupunreadmsgcount_<23.5] yes=25,no=26,missing=25
				25:leaf=0.00512885395
				26:leaf=-0.00280256057
		6:[myrecentsearchcount_7<3.5] yes=13,no=14,missing=13
			13:[groupunreadmsgcount_<0.5] yes=27,no=28,missing=27
				27:leaf=0.012737684
				28:leaf=0.00921092741
			14:[myrecentsearchcount_7<10.5] yes=29,no=30,missing=29
				29:leaf=0.0137516158
				30:leaf=0.014876985
booster[29]:
0:[myrecentsearchcount_14<0.5] yes=1,no=2,missing=1
	1:[groupmembercount_<42.5] yes=3,no=4,missing=3
		3:[myrecentmsgcount_<1.5] yes=7,no=8,missing=7
			7:[groupmyselflastactivetime_<1673.5] yes=15,no=16,missing=15
				15:leaf=0.00113669224
				16:leaf=-0.00432192814
			8:[groupmembercount_<7.5] yes=17,no=18,missing=17
				17:leaf=0.00791428518
				18:leaf=0.00204743864
		4:[myrecentmsgcount_<1.5] yes=9,no=10,missing=9
			9:[groupmembercount_<102.5] yes=19,no=20,missing=19
				19:leaf=-0.00843005162
				20:leaf=-0.0121271247
			10:[groupmembercount_<174.5] yes=21,no=22,missing=21
				21:leaf=-0.00440164562
				22:leaf=-0.00920902845
	2:[groupmembercount_<44.5] yes=5,no=6,missing=5
		5:[myrecentsearchcount_7<1.5] yes=11,no=12,missing=11
			11:[groupmembercount_<7.5] yes=23,no=24,missing=23
				23:leaf=0.0127577232
				24:leaf=0.0100951632
			12:[groupmembercount_<6.5] yes=25,no=26,missing=25
				25:leaf=0.0142344814
				26:leaf=0.0129642412
		6:[myrecentsearchcount_7<1.5] yes=13,no=14,missing=13
			13:[myrecentsearchcount_7<0.5] yes=27,no=28,missing=27
				27:leaf=-0.00587094435
				28:leaf=0.00552599598
			14:[myrecentsearchcount_7<4.5] yes=29,no=30,missing=29
				29:leaf=0.0101098735
				30:leaf=0.0134340776
booster[30]:
0:[myrecentsearchcount_14<0.5] yes=1,no=2,missing=1
	1:[groupmembercount_<42.5] yes=3,no=4,missing=3
		3:[myrecentmsgcount_<1.5] yes=7,no=8,missing=7
			7:[groupmyselflastactivetime_<1817.5] yes=15,no=16,missing=15
				15:leaf=0.0010983604
				16:leaf=-0.00428174296
			8:[groupmembercount_<7.5] yes=17,no=18,missing=17
				17:leaf=0.00794265699
				18:leaf=0.00203067577
		4:[groupfriendscount_<13.5] yes=9,no=10,missing=9
			9:[groupmembercount_<77.5] yes=19,no=20,missing=19
				19:leaf=-0.00886941608
				20:leaf=-0.0127574615
			10:[groupmembercount_<164.5] yes=21,no=22,missing=21
				21:leaf=-0.0053071091
				22:leaf=-0.0101641724
	2:[groupmembercount_<52.5] yes=5,no=6,missing=5
		5:[myrecentsearchcount_14<2.5] yes=11,no=12,missing=11
			11:[groupmembercount_<6.5] yes=23,no=24,missing=23
				23:leaf=0.0131634753
				24:leaf=0.0105769215
			12:[myrecentsearchcount_14<5.5] yes=25,no=26,missing=25
				25:leaf=0.0130963875
				26:leaf=0.0141925085
		6:[myrecentsearchcount_14<1.5] yes=13,no=14,missing=13
			13:[groupunreadmsgcount_<0.5] yes=27,no=28,missing=27
				27:leaf=0.00657198811
				28:leaf=-0.000655031647
			14:[myrecentsearchcount_14<4.5] yes=29,no=30,missing=29
				29:leaf=0.00931638107
				30:leaf=0.012964556
booster[31]:
0:[myrecentsearchcount_14<0.5] yes=1,no=2,missing=1
	1:[groupmembercount_<42.5] yes=3,no=4,missing=3
		3:[myrecentmsgcount_<1.5] yes=7,no=8,missing=7
			7:[grouplastactivetime_<1770.5] yes=15,no=16,missing=15
				15:leaf=-0.00189056224
				16:leaf=-0.00612762198
			8:[groupmembercount_<7.5] yes=17,no=18,missing=17
				17:leaf=0.00789864641
				18:leaf=0.00204020669
		4:[myrecentmsgcount_<0.5] yes=9,no=10,missing=9
			9:[groupfriendscount_<14.5] yes=19,no=20,missing=19
				19:leaf=-0.01261706
				20:leaf=-0.00941493269
			10:[groupmembercount_<168.5] yes=21,no=22,missing=21
				21:leaf=-0.00502801966
				22:leaf=-0.00949062593
	2:[groupmembercount_<46.5] yes=5,no=6,missing=5
		5:[groupmembercount_<6.5] yes=11,no=12,missing=11
			11:[myrecentsearchcount_14<1.5] yes=23,no=24,missing=23
				23:leaf=0.0129120098
				24:leaf=0.0139314635
			12:[myrecentsearchcount_14<2.5] yes=25,no=26,missing=25
				25:leaf=0.0106608951
				26:leaf=0.0130970944
		6:[myrecentsearchcount_14<1.5] yes=13,no=14,missing=13
			13:[groupunreadmsgcount_<0.5] yes=27,no=28,missing=27
				27:leaf=0.00649287133
				28:leaf=-0.000980674056
			14:[myrecentsearchcount_14<4.5] yes=29,no=30,missing=29
				29:leaf=0.00926181674
				30:leaf=0.0127840154
booster[32]:
0:[myrecentsearchcount_30<0.5] yes=1,no=2,missing=1
	1:[myrecentmsgcount_<1.5] yes=3,no=4,missing=3
		3:[groupunreadmsgcount_<0.5] yes=7,no=8,missing=7
			7:[groupmyselflastactivetime_<2875.5] yes=15,no=16,missing=15
				15:leaf=-0.00175463851
				16:leaf=-0.00689184247
			8:[groupmyselflastactivetime_<1937.5] yes=17,no=18,missing=17
				17:leaf=-0.00850158185
				18:leaf=-0.0120115345
		4:[grouplastactivetime_<10.5] yes=9,no=10,missing=9
			9:[languageversion_others<0.5] yes=19,no=20,missing=19
				19:leaf=0.000372857379
				20:leaf=-0.00562501885
			10:[myrecentmsgcount_<12.5] yes=21,no=22,missing=21
				21:leaf=0.00144246779
				22:leaf=0.0068477164
	2:[groupunreadmsgcount_<0.5] yes=5,no=6,missing=5
		5:[myrecentsearchcount_30<1.5] yes=11,no=12,missing=11
			11:[groupfriendscount_<8.5] yes=23,no=24,missing=23
				23:leaf=0.0115646934
				24:leaf=0.00876200106
			12:[groupfriendscount_<7.5] yes=25,no=26,missing=25
				25:leaf=0.0133674191
				26:leaf=0.0118619557
		6:[myrecentsearchcount_30<2.5] yes=13,no=14,missing=13
			13:[myrecentmsgcount_<12.5] yes=27,no=28,missing=27
				27:leaf=0.0012007294
				28:leaf=0.00697717257
			14:[myrecentsearchcount_30<7.5] yes=29,no=30,missing=29
				29:leaf=0.00953549333
				30:leaf=0.0130660962
booster[33]:
0:[myrecentsearchcount_14<0.5] yes=1,no=2,missing=1
	1:[groupmembercount_<52.5] yes=3,no=4,missing=3
		3:[myrecentmsgcount_<0.5] yes=7,no=8,missing=7
			7:[groupmyselflastactivetime_<1607.5] yes=15,no=16,missing=15
				15:leaf=0.0018271741
				16:leaf=-0.00505859079
			8:[groupmembercount_<7.5] yes=17,no=18,missing=17
				17:leaf=0.00739299646
				18:leaf=0.00108399452
		4:[groupfriendscount_<20.5] yes=9,no=10,missing=9
			9:[groupmyselflastactivetime_<1.5] yes=19,no=20,missing=19
				19:leaf=-2.59251465e-05
				20:leaf=-0.0117510008
			10:[groupmembercount_<150.5] yes=21,no=22,missing=21
				21:leaf=-0.0045121843
				22:leaf=-0.00934912823
	2:[groupmembercount_<54.5] yes=5,no=6,missing=5
		5:[myrecentsearchcount_14<1.5] yes=11,no=12,missing=11
			11:[groupmembercount_<5.5] yes=23,no=24,missing=23
				23:leaf=0.0127458926
				24:leaf=0.0100763962
			12:[groupmembercount_<8.5] yes=25,no=26,missing=25
				25:leaf=0.013546952
				26:leaf=0.0122950738
		6:[groupunreadmsgcount_<2.5] yes=13,no=14,missing=13
			13:[myrecentsearchcount_14<2.5] yes=27,no=28,missing=27
				27:leaf=0.00723777292
				28:leaf=0.0117184399
			14:[myrecentsearchcount_30<1.5] yes=29,no=30,missing=29
				29:leaf=-0.00267885532
				30:leaf=0.00660824683
booster[34]:
0:[myrecentsearchcount_14<0.5] yes=1,no=2,missing=1
	1:[groupmembercount_<52.5] yes=3,no=4,missing=3
		3:[myrecentmsgcount_<0.5] yes=7,no=8,missing=7
			7:[groupmyselflastactivetime_<1607.5] yes=15,no=16,missing=15
				15:leaf=0.00194926513
				16:leaf=-0.00515637081
			8:[groupmembercount_<7.5] yes=17,no=18,missing=17
				17:leaf=0.0071977172
				18:leaf=0.00120451825
		4:[groupfriendscount_<19.5] yes=9,no=10,missing=9
			9:[groupmembercount_<107.5] yes=19,no=20,missing=19
				19:leaf=-0.0092469519
				20:leaf=-0.0122805089
			10:[groupmembercount_<148.5] yes=21,no=22,missing=21
				21:leaf=-0.00448307302
				22:leaf=-0.00903643761
	2:[groupmembercount_<53.5] yes=5,no=6,missing=5
		5:[myrecentsearchcount_14<2.5] yes=11,no=12,missing=11
			11:[groupmembercount_<8.5] yes=23,no=24,missing=23
				23:leaf=0.0122992359
				24:leaf=0.010161316
			12:[groupfriendscount_<8.5] yes=25,no=26,missing=25
				25:leaf=0.0136416908
				26:leaf=0.0124980109
		6:[myrecentsearchcount_14<2.5] yes=13,no=14,missing=13
			13:[groupunreadmsgcount_<0.5] yes=27,no=28,missing=27
				27:leaf=0.00743573997
				28:leaf=0.000729399093
			14:[myrecentsearchcount_14<6.5] yes=29,no=30,missing=29
				29:leaf=0.00937056914
				30:leaf=0.0133911334
booster[35]:
0:[myrecentsearchcount_14<0.5] yes=1,no=2,missing=1
	1:[groupmembercount_<52.5] yes=3,no=4,missing=3
		3:[myrecentmsgcount_<0.5] yes=7,no=8,missing=7
			7:[groupmyselflastactivetime_<1678.5] yes=15,no=16,missing=15
				15:leaf=0.0019859171
				16:leaf=-0.00497861067
			8:[groupmembercount_<7.5] yes=17,no=18,missing=17
				17:leaf=0.0071105212
				18:leaf=0.00116410095
		4:[groupfriendscount_<21.5] yes=9,no=10,missing=9
			9:[groupmembercount_<107.5] yes=19,no=20,missing=19
				19:leaf=-0.00903181639
				20:leaf=-0.0122097312
			10:[groupmembercount_<150.5] yes=21,no=22,missing=21
				21:leaf=-0.00438828301
				22:leaf=-0.00888570026
	2:[groupmembercount_<53.5] yes=5,no=6,missing=5
		5:[myrecentsearchcount_14<2.5] yes=11,no=12,missing=11
			11:[groupmembercount_<5.5] yes=23,no=24,missing=23
				23:leaf=0.0127881933
				24:leaf=0.0104028173
			12:[groupfriendscount_<8.5] yes=25,no=26,missing=25
				25:leaf=0.013557788
				26:leaf=0.012448675
		6:[myrecentsearchcount_14<2.5] yes=13,no=14,missing=13
			13:[groupunreadmsgcount_<0.5] yes=27,no=28,missing=27
				27:leaf=0.00732728839
				28:leaf=0.000580278749
			14:[myrecentsearchcount_14<6.5] yes=29,no=30,missing=29
				29:leaf=0.00945077743
				30:leaf=0.0133177191
booster[36]:
0:[myrecentsearchcount_7<0.5] yes=1,no=2,missing=1
	1:[groupunreadmsgcount_<0.5] yes=3,no=4,missing=3
		3:[groupmyselflastactivetime_<1117.5] yes=7,no=8,missing=7
			7:[grouplastactivetime_<14.5] yes=15,no=16,missing=15
				15:leaf=-0.00146548799
				16:leaf=0.00379168126
			8:[languageversion_others<0.5] yes=17,no=18,missing=17
				17:leaf=-0.00114982051
				18:leaf=-0.00606299704
		4:[groupmyselflastactivetime_<314.5] yes=9,no=10,missing=9
			9:[grouplastactivetime_<43.5] yes=19,no=20,missing=19
				19:leaf=-0.00565233873
				20:leaf=0.00180910935
			10:[languageversion_others<0.5] yes=21,no=22,missing=21
				21:leaf=-0.00693151867
				22:leaf=-0.0112459539
	2:[groupunreadmsgcount_<0.5] yes=5,no=6,missing=5
		5:[myrecentsearchcount_7<1.5] yes=11,no=12,missing=11
			11:[grouplastactivetime_<13.5] yes=23,no=24,missing=23
				23:leaf=0.00927807949
				24:leaf=0.0111286948
			12:[myrecentsearchcount_7<6.5] yes=25,no=26,missing=25
				25:leaf=0.0123404684
				26:leaf=0.0139808012
		6:[myrecentsearchcount_7<1.5] yes=13,no=14,missing=13
			13:[groupunreadmsgcount_<5.5] yes=27,no=28,missing=27
				27:leaf=0.00533866696
				28:leaf=0.000430235232
			14:[myrecentsearchcount_7<5.5] yes=29,no=30,missing=29
				29:leaf=0.0084898714
				30:leaf=0.012890392
booster[37]:
0:[myrecentsearchcount_14<0.5] yes=1,no=2,missing=1
	1:[groupmembercount_<54.5] yes=3,no=4,missing=3
		3:[myrecentmsgcount_<0.5] yes=7,no=8,missing=7
			7:[groupmyselflastactivetime_<1678.5] yes=15,no=16,missing=15
				15:leaf=0.0016990602
				16:leaf=-0.00504192151
			8:[groupmembercount_<7.5] yes=17,no=18,missing=17
				17:leaf=0.00716700405
				18:leaf=0.00104003388
		4:[groupfriendscount_<19.5] yes=9,no=10,missing=9
			9:[groupmembercount_<164.5] yes=19,no=20,missing=19
				19:leaf=-0.00983742531
				20:leaf=-0.0122984098
			10:[groupmembercount_<149.5] yes=21,no=22,missing=21
				21:leaf=-0.00436043739
				22:leaf=-0.00890422147
	2:[groupmembercount_<53.5] yes=5,no=6,missing=5
		5:[myrecentsearchcount_14<1.5] yes=11,no=12,missing=11
			11:[groupmembercount_<5.5] yes=23,no=24,missing=23
				23:leaf=0.0123493075
				24:leaf=0.00984256621
			12:[groupfriendscount_<3.5] yes=25,no=26,missing=25
				25:leaf=0.0136048384
				26:leaf=0.0121520506
		6:[myrecentsearchcount_14<2.5] yes=13,no=14,missing=13
			13:[groupmembercount_<170.5] yes=27,no=28,missing=27
				27:leaf=0.00700781075
				28:leaf=0.00351352594
			14:[myrecentsearchcount_14<6.5] yes=29,no=30,missing=29
				29:leaf=0.00921310764
				30:leaf=0.0131568378
booster[38]:
0:[myrecentsearchcount_7<0.5] yes=1,no=2,missing=1
	1:[myrecentmsgcount_<3.5] yes=3,no=4,missing=3
		3:[groupunreadmsgcount_<0.5] yes=7,no=8,missing=7
			7:[groupmyselflastactivetime_<1674.5] yes=15,no=16,missing=15
				15:leaf=-0.00107448269
				16:leaf=-0.00603748066
			8:[groupmyselflastactivetime_<1937.5] yes=17,no=18,missing=17
				17:leaf=-0.00782899745
				18:leaf=-0.0114469761
		4:[grouplastactivetime_<10.5] yes=9,no=10,missing=9
			9:[languageversion_others<0.5] yes=19,no=20,missing=19
				19:leaf=0.000593082048
				20:leaf=-0.0042358269
			10:[myrecentmsgcount_<26.5] yes=21,no=22,missing=21
				21:leaf=0.00322396355
				22:leaf=0.00761853298
	2:[groupunreadmsgcount_<1.5] yes=5,no=6,missing=5
		5:[myrecentsearchcount_7<1.5] yes=11,no=12,missing=11
			11:[grouplastactivetime_<13.5] yes=23,no=24,missing=23
				23:leaf=0.00888757221
				24:leaf=0.0109490175
			12:[myrecentsearchcount_7<4.5] yes=25,no=26,missing=25
				25:leaf=0.011966601
				26:leaf=0.0134357531
		6:[myrecentsearchcount_14<2.5] yes=13,no=14,missing=13
			13:[groupunreadmsgcount_<10.5] yes=27,no=28,missing=27
				27:leaf=0.00469760131
				28:leaf=0.000285333343
			14:[groupunreadmsgcount_<394] yes=29,no=30,missing=29
				29:leaf=0.010299203
				30:leaf=-0.014541667
booster[39]:
0:[myrecentsearchcount_14<0.5] yes=1,no=2,missing=1
	1:[groupmembercount_<52.5] yes=3,no=4,missing=3
		3:[groupmembercount_<7.5] yes=7,no=8,missing=7
			7:[grouplastactivetime_<1078.5] yes=15,no=16,missing=15
				15:leaf=0.00635399669
				16:leaf=-0.00357898325
			8:[groupmyselflastactivetime_<1097.5] yes=17,no=18,missing=17
				17:leaf=0.00116700481
				18:leaf=-0.00331281917
		4:[groupfriendscount_<18.5] yes=9,no=10,missing=9
			9:[groupmyselflastactivetime_<1.5] yes=19,no=20,missing=19
				19:leaf=0.00109494838
				20:leaf=-0.0112459837
			10:[groupmembercount_<150.5] yes=21,no=22,missing=21
				21:leaf=-0.00453722477
				22:leaf=-0.00890946947
	2:[groupmembercount_<53.5] yes=5,no=6,missing=5
		5:[myrecentsearchcount_14<1.5] yes=11,no=12,missing=11
			11:[groupmembercount_<5.5] yes=23,no=24,missing=23
				23:leaf=0.0122692045
				24:leaf=0.00961901806
			12:[groupfriendscount_<3.5] yes=25,no=26,missing=25
				25:leaf=0.01347748
				26:leaf=0.0120311081
		6:[myrecentsearchcount_14<2.5] yes=13,no=14,missing=13
			13:[grouplastactivetime_<12.5] yes=27,no=28,missing=27
				27:leaf=0.00385920424
				28:leaf=0.00785640907
			14:[myrecentsearchcount_14<6.5] yes=29,no=30,missing=29
				29:leaf=0.0092063332
				30:leaf=0.0130163748
booster[40]:
0:[myrecentsearchcount_14<0.5] yes=1,no=2,missing=1
	1:[groupmembercount_<38.5] yes=3,no=4,missing=3
		3:[myrecentmsgcount_<0.5] yes=7,no=8,missing=7
			7:[groupmyselflastactivetime_<1727.5] yes=15,no=16,missing=15
				15:leaf=0.002391916
				16:leaf=-0.00432909047
			8:[groupmembercount_<5.5] yes=17,no=18,missing=17
				17:leaf=0.0082112886
				18:leaf=0.0023238482
		4:[myrecentmsgcount_<0.5] yes=9,no=10,missing=9
			9:[groupmembercount_<109.5] yes=19,no=20,missing=19
				19:leaf=-0.00824311934
				20:leaf=-0.0115125105
			10:[groupmembercount_<227.5] yes=21,no=22,missing=21
				21:leaf=-0.00411586883
				22:leaf=-0.00926322024
	2:[groupmembercount_<36.5] yes=5,no=6,missing=5
		5:[myrecentsearchcount_14<2.5] yes=11,no=12,missing=11
			11:[groupfriendscount_<7.5] yes=23,no=24,missing=23
				23:leaf=0.0118872905
				24:leaf=0.00968328305
			12:[groupfriendscount_<5.5] yes=25,no=26,missing=25
				25:leaf=0.0134516368
				26:leaf=0.0122855622
		6:[myrecentsearchcount_14<1.5] yes=13,no=14,missing=13
			13:[groupmembercount_<190.5] yes=27,no=28,missing=27
				27:leaf=0.00706316298
				28:leaf=0.00140656135
			14:[myrecentsearchcount_14<4.5] yes=29,no=30,missing=29
				29:leaf=0.00895233545
				30:leaf=0.0120087024
booster[41]:
0:[myrecentsearchcount_7<0.5] yes=1,no=2,missing=1
	1:[groupmembercount_<38.5] yes=3,no=4,missing=3
		3:[myrecentmsgcount_<1.5] yes=7,no=8,missing=7
			7:[groupmyselflastactivetime_<2640.5] yes=15,no=16,missing=15
				15:leaf=0.00117995485
				16:leaf=-0.00406010402
			8:[groupmembercount_<5.5] yes=17,no=18,missing=17
				17:leaf=0.00849528797
				18:leaf=0.00266632438
		4:[myrecentmsgcount_<0.5] yes=9,no=10,missing=9
			9:[groupmembercount_<109.5] yes=19,no=20,missing=19
				19:leaf=-0.0084417332
				20:leaf=-0.0115744863
			10:[groupmembercount_<206.5] yes=21,no=22,missing=21
				21:leaf=-0.00396801857
				22:leaf=-0.00887412019
	2:[groupmembercount_<68.5] yes=5,no=6,missing=5
		5:[myrecentsearchcount_7<1.5] yes=11,no=12,missing=11
			11:[groupmembercount_<8.5] yes=23,no=24,missing=23
				23:leaf=0.011833474
				24:leaf=0.00930899568
			12:[myrecentsearchcount_7<4.5] yes=25,no=26,missing=25
				25:leaf=0.0119882422
				26:leaf=0.0134151643
		6:[myrecentsearchcount_7<1.5] yes=13,no=14,missing=13
			13:[groupmembercount_<190.5] yes=27,no=28,missing=27
				27:leaf=0.00671965582
				28:leaf=0.00212122174
			14:[myrecentsearchcount_7<5.5] yes=29,no=30,missing=29
				29:leaf=0.00878190063
				30:leaf=0.0123793408
booster[42]:
0:[myrecentsearchcount_7<0.5] yes=1,no=2,missing=1
	1:[groupmembercount_<34.5] yes=3,no=4,missing=3
		3:[grouplastactivetime_<1248.5] yes=7,no=8,missing=7
			7:[groupmembercount_<6.5] yes=15,no=16,missing=15
				15:leaf=0.0067756176
				16:leaf=0.000668402761
			8:[groupmyselflastactivetime_<2805.5] yes=17,no=18,missing=17
				17:leaf=-4.06034196e-05
				18:leaf=-0.00661818031
		4:[groupmembercount_<88.5] yes=9,no=10,missing=9
			9:[groupfriendscount_<11.5] yes=19,no=20,missing=19
				19:leaf=-0.00811028853
				20:leaf=-0.00327045633
			10:[groupfriendscount_<21.5] yes=21,no=22,missing=21
				21:leaf=-0.0115450192
				22:leaf=-0.00767833041
	2:[groupmembercount_<33.5] yes=5,no=6,missing=5
		5:[myrecentsearchcount_7<1.5] yes=11,no=12,missing=11
			11:[groupmembercount_<7.5] yes=23,no=24,missing=23
				23:leaf=0.0118800523
				24:leaf=0.00961261056
			12:[myrecentsearchcount_7<4.5] yes=25,no=26,missing=25
				25:leaf=0.0121233547
				26:leaf=0.0133778704
		6:[myrecentsearchcount_7<1.5] yes=13,no=14,missing=13
			13:[groupunreadmsgcount_<0.5] yes=27,no=28,missing=27
				27:leaf=0.00726988167
				28:leaf=0.000813823601
			14:[myrecentsearchcount_7<4.5] yes=29,no=30,missing=29
				29:leaf=0.00943281781
				30:leaf=0.0123527059
booster[43]:
0:[myrecentsearchcount_30<0.5] yes=1,no=2,missing=1
	1:[groupmembercount_<52.5] yes=3,no=4,missing=3
		3:[myrecentmsgcount_<0.5] yes=7,no=8,missing=7
			7:[groupmyselflastactivetime_<1840.5] yes=15,no=16,missing=15
				15:leaf=0.00195939559
				16:leaf=-0.0045692483
			8:[groupmembercount_<9.5] yes=17,no=18,missing=17
				17:leaf=0.006380226
				18:leaf=0.000796416134
		4:[myrecentmsgcount_<0.5] yes=9,no=10,missing=9
			9:[groupfriendscount_<21.5] yes=19,no=20,missing=19
				19:leaf=-0.0116844103
				20:leaf=-0.00870198384
			10:[groupfriendscount_<17.5] yes=21,no=22,missing=21
				21:leaf=-0.0087949587
				22:leaf=-0.00425873883
	2:[groupmembercount_<61.5] yes=5,no=6,missing=5
		5:[myrecentsearchcount_14<1.5] yes=11,no=12,missing=11
			11:[groupmembercount_<8.5] yes=23,no=24,missing=23
				23:leaf=0.0115005774
				24:leaf=0.00856278557
			12:[groupfriendscount_<7.5] yes=25,no=26,missing=25
				25:leaf=0.0127324434
				26:leaf=0.0112894941
		6:[myrecentsearchcount_14<1.5] yes=13,no=14,missing=13
			13:[groupmembercount_<190.5] yes=27,no=28,missing=27
				27:leaf=0.00559586752
				28:leaf=0.000650846225
			14:[myrecentsearchcount_14<3.5] yes=29,no=30,missing=29
				29:leaf=0.0081731854
				30:leaf=0.011191356
booster[44]:
0:[myrecentsearchcount_7<0.5] yes=1,no=2,missing=1
	1:[groupmembercount_<34.5] yes=3,no=4,missing=3
		3:[myrecentmsgcount_<1.5] yes=7,no=8,missing=7
			7:[groupmyselflastactivetime_<1840.5] yes=15,no=16,missing=15
				15:leaf=0.00149249902
				16:leaf=-0.00405169604
			8:[groupmembercount_<5.5] yes=17,no=18,missing=17
				17:leaf=0.00836116634
				18:leaf=0.00274331681
		4:[myrecentmsgcount_<0.5] yes=9,no=10,missing=9
			9:[groupunreadmsgcount_<2.5] yes=19,no=20,missing=19
				19:leaf=-0.00879803579
				20:leaf=-0.0118742893
			10:[groupmembercount_<128.5] yes=21,no=22,missing=21
				21:leaf=-0.00300160004
				22:leaf=-0.00770956604
	2:[groupmembercount_<32.5] yes=5,no=6,missing=5
		5:[myrecentsearchcount_7<1.5] yes=11,no=12,missing=11
			11:[groupmembercount_<7.5] yes=23,no=24,missing=23
				23:leaf=0.0117083965
				24:leaf=0.00952779315
			12:[groupfriendscount_<8.5] yes=25,no=26,missing=25
				25:leaf=0.0127468668
				26:leaf=0.0114194704
		6:[myrecentsearchcount_7<1.5] yes=13,no=14,missing=13
			13:[groupunreadmsgcount_<0.5] yes=27,no=28,missing=27
				27:leaf=0.00739725493
				28:leaf=0.000797042449
			14:[myrecentsearchcount_7<4.5] yes=29,no=30,missing=29
				29:leaf=0.00913416222
				30:leaf=0.0121234842
booster[45]:
0:[myrecentsearchcount_7<0.5] yes=1,no=2,missing=1
	1:[groupmembercount_<52.5] yes=3,no=4,missing=3
		3:[myrecentmsgcount_<0.5] yes=7,no=8,missing=7
			7:[groupmyselflastactivetime_<1840.5] yes=15,no=16,missing=15
				15:leaf=0.0019166026
				16:leaf=-0.00461545866
			8:[groupmembercount_<9.5] yes=17,no=18,missing=17
				17:leaf=0.00644971244
				18:leaf=0.000794743712
		4:[myrecentmsgcount_<0.5] yes=9,no=10,missing=9
			9:[groupfriendscount_<8.5] yes=19,no=20,missing=19
				19:leaf=-0.0120824249
				20:leaf=-0.00934528746
			10:[groupfriendscount_<13.5] yes=21,no=22,missing=21
				21:leaf=-0.00877417438
				22:leaf=-0.00440865336
	2:[groupmembercount_<53.5] yes=5,no=6,missing=5
		5:[myrecentsearchcount_7<1.5] yes=11,no=12,missing=11
			11:[groupmembercount_<8.5] yes=23,no=24,missing=23
				23:leaf=0.0115017509
				24:leaf=0.00914018694
			12:[groupfriendscount_<8.5] yes=25,no=26,missing=25
				25:leaf=0.0126409363
				26:leaf=0.0112854028
		6:[myrecentsearchcount_7<1.5] yes=13,no=14,missing=13
			13:[groupunreadmsgcount_<0.5] yes=27,no=28,missing=27
				27:leaf=0.00688169105
				28:leaf=-0.000406960084
			14:[myrecentsearchcount_7<3.5] yes=29,no=30,missing=29
				29:leaf=0.00848795846
				30:leaf=0.0114254719
booster[46]:
0:[myrecentsearchcount_7<0.5] yes=1,no=2,missing=1
	1:[groupmembercount_<38.5] yes=3,no=4,missing=3
		3:[grouplastactivetime_<1249.5] yes=7,no=8,missing=7
			7:[groupmembercount_<9.5] yes=15,no=16,missing=15
				15:leaf=0.00541634019
				16:leaf=-0.000278337684
			8:[groupmyselflastactivetime_<2819.5] yes=17,no=18,missing=17
				17:leaf=7.6104654e-05
				18:leaf=-0.00673762523
		4:[groupmembercount_<106.5] yes=9,no=10,missing=9
			9:[groupfriendscount_<11.5] yes=19,no=20,missing=19
				19:leaf=-0.00859314483
				20:leaf=-0.00350278988
			10:[groupfriendscount_<23.5] yes=21,no=22,missing=21
				21:leaf=-0.0112413904
				22:leaf=-0.00764899282
	2:[groupmembercount_<34.5] yes=5,no=6,missing=5
		5:[myrecentsearchcount_7<2.5] yes=11,no=12,missing=11
			11:[groupfriendscount_<7.5] yes=23,no=24,missing=23
				23:leaf=0.0115566105
				24:leaf=0.00953060575
			12:[myrecentsearchcount_7<5.5] yes=25,no=26,missing=25
				25:leaf=0.0121859452
				26:leaf=0.0132200886
		6:[myrecentsearchcount_7<2.5] yes=13,no=14,missing=13
			13:[groupunreadmsgcount_<0.5] yes=27,no=28,missing=27
				27:leaf=0.00781859364
				28:leaf=0.00184107816
			14:[myrecentsearchcount_7<5.5] yes=29,no=30,missing=29
				29:leaf=0.00996289682
				30:leaf=0.0121464813
booster[47]:
0:[myrecentsearchcount_7<0.5] yes=1,no=2,missing=1
	1:[groupmembercount_<39.5] yes=3,no=4,missing=3
		3:[grouplastactivetime_<1653.5] yes=7,no=8,missing=7
			7:[groupmembercount_<5.5] yes=15,no=16,missing=15
				15:leaf=0.00713789463
				16:leaf=0.000565636903
			8:[grouplastactivetime_<37327] yes=17,no=18,missing=17
				17:leaf=-0.00735267857
				18:leaf=0.000187264319
		4:[groupmembercount_<107.5] yes=9,no=10,missing=9
			9:[groupfriendscount_<11.5] yes=19,no=20,missing=19
				19:leaf=-0.00880445447
				20:leaf=-0.00342719164
			10:[groupfriendscount_<21.5] yes=21,no=22,missing=21
				21:leaf=-0.0112592168
				22:leaf=-0.00784656405
	2:[groupmembercount_<32.5] yes=5,no=6,missing=5
		5:[myrecentsearchcount_7<2.5] yes=11,no=12,missing=11
			11:[groupfriendscount_<7.5] yes=23,no=24,missing=23
				23:leaf=0.0114440937
				24:leaf=0.00942453556
			12:[groupmembercount_<7.5] yes=25,no=26,missing=25
				25:leaf=0.0130649395
				26:leaf=0.011994129
		6:[myrecentsearchcount_7<2.5] yes=13,no=14,missing=13
			13:[groupunreadmsgcount_<0.5] yes=27,no=28,missing=27
				27:leaf=0.00774374604
				28:leaf=0.00192710035
			14:[myrecentsearchcount_7<4.5] yes=29,no=30,missing=29
				29:leaf=0.00983240549
				30:leaf=0.011912981
booster[48]:
0:[myrecentsearchcount_7<0.5] yes=1,no=2,missing=1
	1:[groupmembercount_<47.5] yes=3,no=4,missing=3
		3:[myrecentmsgcount_<2.5] yes=7,no=8,missing=7
			7:[groupmembercount_<9.5] yes=15,no=16,missing=15
				15:leaf=-0.000136702205
				16:leaf=-0.00387722091
			8:[groupmembercount_<9.5] yes=17,no=18,missing=17
				17:leaf=0.00681596622
				18:leaf=0.00169955136
		4:[myrecentmsgcount_<0.5] yes=9,no=10,missing=9
			9:[groupmembercount_<126.5] yes=19,no=20,missing=19
				19:leaf=-0.00812757853
				20:leaf=-0.0113999797
			10:[groupmembercount_<93.5] yes=21,no=22,missing=21
				21:leaf=-0.00268432871
				22:leaf=-0.00745789614
	2:[groupmembercount_<35.5] yes=5,no=6,missing=5
		5:[myrecentsearchcount_7<3.5] yes=11,no=12,missing=11
			11:[groupmembercount_<6.5] yes=23,no=24,missing=23
				23:leaf=0.0117747197
				24:leaf=0.00982149318
			12:[groupfriendscount_<7.5] yes=25,no=26,missing=25
				25:leaf=0.0130309118
				26:leaf=0.0119756209
		6:[myrecentsearchcount_7<1.5] yes=13,no=14,missing=13
			13:[groupmembercount_<93.5] yes=27,no=28,missing=27
				27:leaf=0.00742419623
				28:leaf=0.00342200929
			14:[myrecentsearchcount_7<3.5] yes=29,no=30,missing=29
				29:leaf=0.00836990587
				30:leaf=0.0110605704
booster[49]:
0:[myrecentsearchcount_14<0.5] yes=1,no=2,missing=1
	1:[groupmembercount_<59.5] yes=3,no=4,missing=3
		3:[myrecentmsgcount_<2.5] yes=7,no=8,missing=7
			7:[groupmyselflastactivetime_<1825.5] yes=15,no=16,missing=15
				15:leaf=0.00061010092
				16:leaf=-0.00408884976
			8:[groupmembercount_<9.5] yes=17,no=18,missing=17
				17:leaf=0.00679793349
				18:leaf=0.00129227841
		4:[myrecentmsgcount_<0.5] yes=9,no=10,missing=9
			9:[groupfriendscount_<12.5] yes=19,no=20,missing=19
				19:leaf=-0.0117679425
				20:leaf=-0.00907566771
			10:[grouplastactivetime_<45.5] yes=21,no=22,missing=21
				21:leaf=-0.00700233364
				22:leaf=-0.000747335434
	2:[groupmembercount_<32.5] yes=5,no=6,missing=5
		5:[groupmembercount_<6.5] yes=11,no=12,missing=11
			11:[myrecentsearchcount_14<1.5] yes=23,no=24,missing=23
				23:leaf=0.0112798726
				24:leaf=0.0125167761
			12:[myrecentsearchcount_14<3.5] yes=25,no=26,missing=25
				25:leaf=0.00956498832
				26:leaf=0.0118765105
		6:[myrecentsearchcount_14<1.5] yes=13,no=14,missing=13
			13:[groupunreadmsgcount_<0.5] yes=27,no=28,missing=27
				27:leaf=0.0064835893
				28:leaf=7.0678936e-05
			14:[myrecentsearchcount_14<7.5] yes=29,no=30,missing=29
				29:leaf=0.00832311716
				30:leaf=0.0119268773
booster[50]:
0:[myrecentsearchcount_7<0.5] yes=1,no=2,missing=1
	1:[groupmembercount_<26.5] yes=3,no=4,missing=3
		3:[myrecentmsgcount_<2.5] yes=7,no=8,missing=7
			7:[groupmyselflastactivetime_<1825.5] yes=15,no=16,missing=15
				15:leaf=0.00141953141
				16:leaf=-0.00318270014
			8:[groupmembercount_<6.5] yes=17,no=18,missing=17
				17:leaf=0.00760291284
				18:leaf=0.00310894731
		4:[groupmembercount_<106.5] yes=9,no=10,missing=9
			9:[myrecentmsgcount_<0.5] yes=19,no=20,missing=19
				19:leaf=-0.00690300157
				20:leaf=-0.00238308776
			10:[myrecentmsgcount_<0.5] yes=21,no=22,missing=21
				21:leaf=-0.011030646
				22:leaf=-0.00736815436
	2:[groupmembercount_<35.5] yes=5,no=6,missing=5
		5:[myrecentsearchcount_7<3.5] yes=11,no=12,missing=11
			11:[groupmembercount_<6.5] yes=23,no=24,missing=23
				23:leaf=0.0116921254
				24:leaf=0.00968476571
			12:[myrecentsearchcount_7<9.5] yes=25,no=26,missing=25
				25:leaf=0.0121717649
				26:leaf=0.0133306794
		6:[myrecentsearchcount_7<1.5] yes=13,no=14,missing=13
			13:[groupunreadmsgcount_<0.5] yes=27,no=28,missing=27
				27:leaf=0.00674995454
				28:leaf=0.00128816289
			14:[myrecentsearchcount_7<6.5] yes=29,no=30,missing=29
				29:leaf=0.00879637152
				30:leaf=0.0119655319
booster[51]:
0:[myrecentsearchcount_7<0.5] yes=1,no=2,missing=1
	1:[groupmembercount_<59.5] yes=3,no=4,missing=3
		3:[groupmembercount_<9.5] yes=7,no=8,missing=7
			7:[grouplastactivetime_<1676.5] yes=15,no=16,missing=15
				15:leaf=0.00527778454
				16:leaf=-0.00458790781
			8:[grouplastactivetime_<1455.5] yes=17,no=18,missing=17
				17:leaf=-0.00109646807
				18:leaf=-0.0069507584
		4:[groupfriendscount_<17.5] yes=9,no=10,missing=9
			9:[groupmembercount_<126.5] yes=19,no=20,missing=19
				19:leaf=-0.00855135638
				20:leaf=-0.0114774192
			10:[groupmembercount_<241.5] yes=21,no=22,missing=21
				21:leaf=-0.00448784744
				22:leaf=-0.00912121963
	2:[groupmembercount_<31.5] yes=5,no=6,missing=5
		5:[myrecentsearchcount_7<2.5] yes=11,no=12,missing=11
			11:[groupfriendscount_<5.5] yes=23,no=24,missing=23
				23:leaf=0.0112885302
				24:leaf=0.0093426276
			12:[myrecentsearchcount_7<4.5] yes=25,no=26,missing=25
				25:leaf=0.0114046093
				26:leaf=0.0126025211
		6:[myrecentsearchcount_7<1.5] yes=13,no=14,missing=13
			13:[groupunreadmsgcount_<0.5] yes=27,no=28,missing=27
				27:leaf=0.0068145385
				28:leaf=0.00152708939
			14:[myrecentsearchcount_7<6.5] yes=29,no=30,missing=29
				29:leaf=0.00861816853
				30:leaf=0.0119820517
booster[52]:
0:[myrecentsearchcount_7<0.5] yes=1,no=2,missing=1
	1:[myrecentmsgcount_<2.5] yes=3,no=4,missing=3
		3:[languageversion_others<0.5] yes=7,no=8,missing=7
			7:[groupmyselflastactivetime_<1964.5] yes=15,no=16,missing=15
				15:leaf=0.000514201238
				16:leaf=-0.0042656674
			8:[groupmyselflastactivetime_<4361.5] yes=17,no=18,missing=17
				17:leaf=-0.00571585214
				18:leaf=-0.00944679976
		4:[groupfriendscount_<8.5] yes=9,no=10,missing=9
			9:[languageversion_others<0.5] yes=19,no=20,missing=19
				19:leaf=0.006375656
				20:leaf=0.00138465466
			10:[languageversion_others<0.5] yes=21,no=22,missing=21
				21:leaf=0.00115487643
				22:leaf=-0.00220989692
	2:[myrecentsearchcount_7<1.5] yes=5,no=6,missing=5
		5:[groupfriendscount_<15.5] yes=11,no=12,missing=11
			11:[groupfriendscount_<4.5] yes=23,no=24,missing=23
				23:leaf=0.0106905326
				24:leaf=0.00864921231
			12:[groupfriendscount_<85.5] yes=25,no=26,missing=25
				25:leaf=0.00645437604
				26:leaf=0.00162230176
		6:[groupfriendscount_<8.5] yes=13,no=14,missing=13
			13:[myrecentsearchcount_7<4.5] yes=27,no=28,missing=27
				27:leaf=0.0114021963
				28:leaf=0.0128186103
			14:[myrecentsearchcount_7<6.5] yes=29,no=30,missing=29
				29:leaf=0.00953636784
				30:leaf=0.0121589731
booster[53]:
0:[myrecentsearchcount_7<0.5] yes=1,no=2,missing=1
	1:[groupmembercount_<30.5] yes=3,no=4,missing=3
		3:[myrecentmsgcount_<2.5] yes=7,no=8,missing=7
			7:[groupmyselflastactivetime_<1825.5] yes=15,no=16,missing=15
				15:leaf=0.00129546807
				16:leaf=-0.00301938714
			8:[groupmembercount_<6.5] yes=17,no=18,missing=17
				17:leaf=0.00740953907
				18:leaf=0.00286096078
		4:[groupmembercount_<106.5] yes=9,no=10,missing=9
			9:[groupfriendscount_<14.5] yes=19,no=20,missing=19
				19:leaf=-0.00747438194
				20:leaf=-0.00251787808
			10:[groupfriendscount_<17.5] yes=21,no=22,missing=21
				21:leaf=-0.0111903017
				22:leaf=-0.00787165388
	2:[groupmembercount_<35.5] yes=5,no=6,missing=5
		5:[myrecentsearchcount_7<3.5] yes=11,no=12,missing=11
			11:[groupfriendscount_<5.5] yes=23,no=24,missing=23
				23:leaf=0.0112514896
				24:leaf=0.00922565628
			12:[myrecentsearchcount_7<9.5] yes=25,no=26,missing=25
				25:leaf=0.0119520193
				26:leaf=0.0131648928
		6:[myrecentsearchcount_7<1.5] yes=13,no=14,missing=13
			13:[groupunreadmsgcount_<0.5] yes=27,no=28,missing=27
				27:leaf=0.00660788221
				28:leaf=0.000483769865
			14:[myrecentsearchcount_14<6.5] yes=29,no=30,missing=29
				29:leaf=0.00837867241
				30:leaf=0.011561702
booster[54]:
0:[myrecentsearchcount_7<0.5] yes=1,no=2,missing=1
	1:[groupmembercount_<59.5] yes=3,no=4,missing=3
		3:[myrecentmsgcount_<2.5] yes=7,no=8,missing=7
			7:[groupmyselflastactivetime_<1964.5] yes=15,no=16,missing=15
				15:leaf=0.000653244671
				16:leaf=-0.00397893973
			8:[groupmembercount_<9.5] yes=17,no=18,missing=17
				17:leaf=0.00660034409
				18:leaf=0.0012972519
		4:[myrecentmsgcount_<0.5] yes=9,no=10,missing=9
			9:[groupfriendscount_<17.5] yes=19,no=20,missing=19
				19:leaf=-0.011261384
				20:leaf=-0.00840125699
			10:[grouplastactivetime_<17.5] yes=21,no=22,missing=21
				21:leaf=-0.00692866091
				22:leaf=-0.00203829235
	2:[groupmembercount_<30.5] yes=5,no=6,missing=5
		5:[myrecentsearchcount_7<3.5] yes=11,no=12,missing=11
			11:[groupfriendscount_<5.5] yes=23,no=24,missing=23
				23:leaf=0.0112249488
				24:leaf=0.00930298213
			12:[groupfriendscount_<4.5] yes=25,no=26,missing=25
				25:leaf=0.012862185
				26:leaf=0.011814801
		6:[myrecentsearchcount_7<1.5] yes=13,no=14,missing=13
			13:[groupunreadmsgcount_<0.5] yes=27,no=28,missing=27
				27:leaf=0.00674658408
				28:leaf=0.00110581541
			14:[myrecentsearchcount_7<6.5] yes=29,no=30,missing=29
				29:leaf=0.00852549169
				30:leaf=0.0117925005
booster[55]:
0:[myrecentsearchcount_7<0.5] yes=1,no=2,missing=1
	1:[groupmembercount_<59.5] yes=3,no=4,missing=3
		3:[myrecentmsgcount_<2.5] yes=7,no=8,missing=7
			7:[groupmyselflastactivetime_<2003.5] yes=15,no=16,missing=15
				15:leaf=0.000462554541
				16:leaf=-0.00369418692
			8:[groupmembercount_<9.5] yes=17,no=18,missing=17
				17:leaf=0.00650346186
				18:leaf=0.00126828148
		4:[myrecentmsgcount_<0.5] yes=9,no=10,missing=9
			9:[groupfriendscount_<17.5] yes=19,no=20,missing=19
				19:leaf=-0.01112659
				20:leaf=-0.00849940907
			10:[grouplastactivetime_<17.5] yes=21,no=22,missing=21
				21:leaf=-0.00702114683
				22:leaf=-0.0021764026
	2:[groupmembercount_<32.5] yes=5,no=6,missing=5
		5:[myrecentsearchcount_7<3.5] yes=11,no=12,missing=11
			11:[groupfriendscount_<5.5] yes=23,no=24,missing=23
				23:leaf=0.0112157427
				24:leaf=0.00923755392
			12:[groupfriendscount_<4.5] yes=25,no=26,missing=25
				25:leaf=0.0127699729
				26:leaf=0.0117548555
		6:[myrecentsearchcount_7<1.5] yes=13,no=14,missing=13
			13:[groupunreadmsgcount_<0.5] yes=27,no=28,missing=27
				27:leaf=0.00658316398
				28:leaf=0.000860410335
			14:[myrecentsearchcount_7<7.5] yes=29,no=30,missing=29
				29:leaf=0.00832251832
				30:leaf=0.0118127204
booster[56]:
0:[myrecentsearchcount_7<0.5] yes=1,no=2,missing=1
	1:[myrecentmsgcount_<1.5] yes=3,no=4,missing=3
		3:[groupunreadmsgcount_<0.5] yes=7,no=8,missing=7
			7:[grouplastactivetime_<14.5] yes=15,no=16,missing=15
				15:leaf=-0.00734322192
				16:leaf=-0.00358161563
			8:[groupfriendscount_<6.5] yes=17,no=18,missing=17
				17:leaf=-0.0113013862
				18:leaf=-0.00927175395
		4:[grouplastactivetime_<14.5] yes=9,no=10,missing=9
			9:[groupunreadmsgcount_<0.5] yes=19,no=20,missing=19
				19:leaf=-0.00136303424
				20:leaf=-0.00536499545
			10:[myrecentmsgcount_<8.5] yes=21,no=22,missing=21
				21:leaf=0.00119302655
				22:leaf=0.00612212298
	2:[groupunreadmsgcount_<0.5] yes=5,no=6,missing=5
		5:[myrecentsearchcount_7<2.5] yes=11,no=12,missing=11
			11:[groupfriendscount_<7.5] yes=23,no=24,missing=23
				23:leaf=0.0104887607
				24:leaf=0.00813875441
			12:[myrecentsearchcount_7<5.5] yes=25,no=26,missing=25
				25:leaf=0.0110265054
				26:leaf=0.0123989815
		6:[myrecentsearchcount_7<1.5] yes=13,no=14,missing=13
			13:[myrecentmsgcount_<5.5] yes=27,no=28,missing=27
				27:leaf=-0.000110107889
				28:leaf=0.00577929476
			14:[myrecentsearchcount_7<7.5] yes=29,no=30,missing=29
				29:leaf=0.00772190839
				30:leaf=0.0117917554
booster[57]:
0:[myrecentsearchcount_14<0.5] yes=1,no=2,missing=1
	1:[groupmembercount_<28.5] yes=3,no=4,missing=3
		3:[myrecentmsgcount_<0.5] yes=7,no=8,missing=7
			7:[grouplastactivetime_<1833.5] yes=15,no=16,missing=15
				15:leaf=-0.00105910201
				16:leaf=-0.00478117773
			8:[groupmembercount_<5.5] yes=17,no=18,missing=17
				17:leaf=0.00706626149
				18:leaf=0.00256061577
		4:[groupmembercount_<101.5] yes=9,no=10,missing=9
			9:[groupfriendscount_<15.5] yes=19,no=20,missing=19
				19:leaf=-0.0070817559
				20:leaf=-0.00246473518
			10:[groupfriendscount_<19.5] yes=21,no=22,missing=21
				21:leaf=-0.0108515332
				22:leaf=-0.00740457233
	2:[groupmembercount_<27.5] yes=5,no=6,missing=5
		5:[myrecentsearchcount_7<1.5] yes=11,no=12,missing=11
			11:[groupfriendscount_<4.5] yes=23,no=24,missing=23
				23:leaf=0.0108938701
				24:leaf=0.00849795714
			12:[myrecentsearchcount_7<5.5] yes=25,no=26,missing=25
				25:leaf=0.0109513504
				26:leaf=0.0124022383
		6:[myrecentsearchcount_7<1.5] yes=13,no=14,missing=13
			13:[groupmembercount_<157.5] yes=27,no=28,missing=27
				27:leaf=0.0059419279
				28:leaf=0.00126086571
			14:[myrecentsearchcount_7<3.5] yes=29,no=30,missing=29
				29:leaf=0.00791918393
				30:leaf=0.010997423
booster[58]:
0:[myrecentsearchcount_7<0.5] yes=1,no=2,missing=1
	1:[groupmembercount_<31.5] yes=3,no=4,missing=3
		3:[myrecentmsgcount_<0.5] yes=7,no=8,missing=7
			7:[groupmyselflastactivetime_<1219.5] yes=15,no=16,missing=15
				15:leaf=0.00310468627
				16:leaf=-0.00333360606
			8:[groupmembercount_<6.5] yes=17,no=18,missing=17
				17:leaf=0.00646499218
				18:leaf=0.00204650685
		4:[groupmembercount_<126.5] yes=9,no=10,missing=9
			9:[groupfriendscount_<15.5] yes=19,no=20,missing=19
				19:leaf=-0.00763506815
				20:leaf=-0.00254519377
			10:[groupfriendscount_<25.5] yes=21,no=22,missing=21
				21:leaf=-0.0107649406
				22:leaf=-0.00734244613
	2:[groupmembercount_<44.5] yes=5,no=6,missing=5
		5:[myrecentsearchcount_7<2.5] yes=11,no=12,missing=11
			11:[groupmembercount_<6.5] yes=23,no=24,missing=23
				23:leaf=0.0110712908
				24:leaf=0.00885858759
			12:[myrecentsearchcount_7<5.5] yes=25,no=26,missing=25
				25:leaf=0.0111763002
				26:leaf=0.0123212384
		6:[myrecentsearchcount_7<1.5] yes=13,no=14,missing=13
			13:[groupunreadmsgcount_<0.5] yes=27,no=28,missing=27
				27:leaf=0.00536841201
				28:leaf=0.000196822803
			14:[myrecentsearchcount_7<3.5] yes=29,no=30,missing=29
				29:leaf=0.00747069484
				30:leaf=0.0107955094
booster[59]:
0:[myrecentsearchcount_14<0.5] yes=1,no=2,missing=1
	1:[groupmembercount_<28.5] yes=3,no=4,missing=3
		3:[myrecentmsgcount_<0.5] yes=7,no=8,missing=7
			7:[groupmyselflastactivetime_<1189.5] yes=15,no=16,missing=15
				15:leaf=0.00345788617
				16:leaf=-0.00316027366
			8:[groupmembercount_<8.5] yes=17,no=18,missing=17
				17:leaf=0.00585067738
				18:leaf=0.00174244773
		4:[groupmembercount_<101.5] yes=9,no=10,missing=9
			9:[groupfriendscount_<15.5] yes=19,no=20,missing=19
				19:leaf=-0.00696922932
				20:leaf=-0.00253053871
			10:[groupfriendscount_<25.5] yes=21,no=22,missing=21
				21:leaf=-0.0104969405
				22:leaf=-0.00693645049
	2:[groupmembercount_<29.5] yes=5,no=6,missing=5
		5:[groupfriendscount_<4.5] yes=11,no=12,missing=11
			11:[myrecentsearchcount_14<2.5] yes=23,no=24,missing=23
				23:leaf=0.010995415
				24:leaf=0.0121892458
			12:[myrecentsearchcount_14<3.5] yes=25,no=26,missing=25
				25:leaf=0.00900658034
				26:leaf=0.0112975119
		6:[myrecentsearchcount_14<1.5] yes=13,no=14,missing=13
			13:[groupmembercount_<91.5] yes=27,no=28,missing=27
				27:leaf=0.00635826774
				28:leaf=0.00199904828
			14:[myrecentsearchcount_14<3.5] yes=29,no=30,missing=29
				29:leaf=0.00731855026
				30:leaf=0.0102361953
booster[60]:
0:[myrecentsearchcount_7<0.5] yes=1,no=2,missing=1
	1:[groupmembercount_<44.5] yes=3,no=4,missing=3
		3:[groupmyselflastactivetime_<238.5] yes=7,no=8,missing=7
			7:[groupmembercount_<16.5] yes=15,no=16,missing=15
				15:leaf=0.00586599018
				16:leaf=-0.000678444805
			8:[groupmembercount_<8.5] yes=17,no=18,missing=17
				17:leaf=0.00145856419
				18:leaf=-0.00225173379
		4:[groupfriendscount_<18.5] yes=9,no=10,missing=9
			9:[groupmembercount_<114.5] yes=19,no=20,missing=19
				19:leaf=-0.00752507709
				20:leaf=-0.0106011126
			10:[groupmembercount_<125.5] yes=21,no=22,missing=21
				21:leaf=-0.0026748064
				22:leaf=-0.00759943295
	2:[groupmembercount_<42.5] yes=5,no=6,missing=5
		5:[myrecentsearchcount_7<2.5] yes=11,no=12,missing=11
			11:[groupfriendscount_<4.5] yes=23,no=24,missing=23
				23:leaf=0.0109463818
				24:leaf=0.00875229854
			12:[groupfriendscount_<4.5] yes=25,no=26,missing=25
				25:leaf=0.0122495508
				26:leaf=0.0110492241
		6:[myrecentsearchcount_7<1.5] yes=13,no=14,missing=13
			13:[groupunreadmsgcount_<0.5] yes=27,no=28,missing=27
				27:leaf=0.00548100052
				28:leaf=0.000437508861
			14:[myrecentsearchcount_7<4.5] yes=29,no=30,missing=29
				29:leaf=0.0076208096
				30:leaf=0.011079248
booster[61]:
0:[myrecentsearchcount_7<0.5] yes=1,no=2,missing=1
	1:[groupmembercount_<29.5] yes=3,no=4,missing=3
		3:[groupmyselflastactivetime_<240.5] yes=7,no=8,missing=7
			7:[groupmembercount_<10.5] yes=15,no=16,missing=15
				15:leaf=0.00660909154
				16:leaf=0.00169210939
			8:[groupmembercount_<5.5] yes=17,no=18,missing=17
				17:leaf=0.00230807392
				18:leaf=-0.00112549984
		4:[groupmembercount_<126.5] yes=9,no=10,missing=9
			9:[groupfriendscount_<18.5] yes=19,no=20,missing=19
				19:leaf=-0.00675285747
				20:leaf=-0.00228801975
			10:[groupfriendscount_<25.5] yes=21,no=22,missing=21
				21:leaf=-0.0105688209
				22:leaf=-0.0072451788
	2:[groupmembercount_<45.5] yes=5,no=6,missing=5
		5:[myrecentsearchcount_7<2.5] yes=11,no=12,missing=11
			11:[groupmembercount_<6.5] yes=23,no=24,missing=23
				23:leaf=0.010851359
				24:leaf=0.00867085624
			12:[myrecentsearchcount_7<5.5] yes=25,no=26,missing=25
				25:leaf=0.0109013198
				26:leaf=0.0121235857
		6:[myrecentsearchcount_7<1.5] yes=13,no=14,missing=13
			13:[groupmembercount_<214.5] yes=27,no=28,missing=27
				27:leaf=0.0050522387
				28:leaf=0.00123674469
			14:[myrecentsearchcount_7<3.5] yes=29,no=30,missing=29
				29:leaf=0.00712941634
				30:leaf=0.0106769595
booster[62]:
0:[myrecentsearchcount_7<0.5] yes=1,no=2,missing=1
	1:[myrecentmsgcount_<2.5] yes=3,no=4,missing=3
		3:[languageversion_others<0.5] yes=7,no=8,missing=7
			7:[groupmyselflastactivetime_<1175.5] yes=15,no=16,missing=15
				15:leaf=0.00146342465
				16:leaf=-0.00376347173
			8:[grouplastactivetime_<14.5] yes=17,no=18,missing=17
				17:leaf=-0.0100185014
				18:leaf=-0.00589219807
		4:[grouplastactivetime_<11.5] yes=9,no=10,missing=9
			9:[languageversion_others<0.5] yes=19,no=20,missing=19
				19:leaf=-6.99227967e-05
				20:leaf=-0.00442225812
			10:[myrecentmsgcount_<9.5] yes=21,no=22,missing=21
				21:leaf=0.00151331292
				22:leaf=0.00573304063
	2:[myrecentsearchcount_7<2.5] yes=5,no=6,missing=5
		5:[groupfriendscount_<8.5] yes=11,no=12,missing=11
			11:[myrecentmsgcount_<12.5] yes=23,no=24,missing=23
				23:leaf=0.00872244686
				24:leaf=0.0103279203
			12:[grouplastactivetime_<11.5] yes=25,no=26,missing=25
				25:leaf=0.00540225441
				26:leaf=0.0083038453
		6:[myrecentsearchcount_7<5.5] yes=13,no=14,missing=13
			13:[groupfriendscount_<8.5] yes=27,no=28,missing=27
				27:leaf=0.0112575823
				28:leaf=0.00946397427
			14:[myrecentsearchcount_7<14.5] yes=29,no=30,missing=29
				29:leaf=0.0115845473
				30:leaf=0.0126865543
booster[63]:
0:[myrecentsearchcount_7<0.5] yes=1,no=2,missing=1
	1:[groupmembercount_<29.5] yes=3,no=4,missing=3
		3:[grouplastactivetime_<1271.5] yes=7,no=8,missing=7
			7:[groupmembercount_<6.5] yes=15,no=16,missing=15
				15:leaf=0.00581547711
				16:leaf=0.000985365012
			8:[grouplastactivetime_<430833] yes=17,no=18,missing=17
				17:leaf=-0.00509560993
				18:leaf=0.00273992121
		4:[groupmembercount_<99.5] yes=9,no=10,missing=9
			9:[groupfriendscount_<15.5] yes=19,no=20,missing=19
				19:leaf=-0.0067799408
				20:leaf=-0.00222893595
			10:[groupfriendscount_<26.5] yes=21,no=22,missing=21
				21:leaf=-0.0102200173
				22:leaf=-0.00671987934
	2:[groupmembercount_<27.5] yes=5,no=6,missing=5
		5:[groupfriendscount_<4.5] yes=11,no=12,missing=11
			11:[myrecentsearchcount_7<2.5] yes=23,no=24,missing=23
				23:leaf=0.0108861635
				24:leaf=0.0120411189
			12:[myrecentsearchcount_7<3.5] yes=25,no=26,missing=25
				25:leaf=0.00899245404
				26:leaf=0.0113120805
		6:[myrecentsearchcount_7<2.5] yes=13,no=14,missing=13
			13:[groupunreadmsgcount_<0.5] yes=27,no=28,missing=27
				27:leaf=0.00619408302
				28:leaf=0.00201528869
			14:[myrecentsearchcount_7<6.5] yes=29,no=30,missing=29
				29:leaf=0.00910486653
				30:leaf=0.0115642725
booster[64]:
0:[myrecentsearchcount_30<0.5] yes=1,no=2,missing=1
	1:[groupmembercount_<40.5] yes=3,no=4,missing=3
		3:[myrecentmsgcount_<3.5] yes=7,no=8,missing=7
			7:[grouplastactivetime_<1844.5] yes=15,no=16,missing=15
				15:leaf=-0.00119432888
				16:leaf=-0.00627996679
			8:[groupmembercount_<5.5] yes=17,no=18,missing=17
				17:leaf=0.00769795245
				18:leaf=0.0028597929
		4:[myrecentmsgcount_<0.5] yes=9,no=10,missing=9
			9:[groupfriendscount_<19.5] yes=19,no=20,missing=19
				19:leaf=-0.0104420548
				20:leaf=-0.00705809798
			10:[groupmembercount_<199.5] yes=21,no=22,missing=21
				21:leaf=-0.002923636
				22:leaf=-0.00789387617
	2:[groupmembercount_<54.5] yes=5,no=6,missing=5
		5:[myrecentsearchcount_14<2.5] yes=11,no=12,missing=11
			11:[groupmembercount_<7.5] yes=23,no=24,missing=23
				23:leaf=0.0104099168
				24:leaf=0.00795828644
			12:[groupmembercount_<5.5] yes=25,no=26,missing=25
				25:leaf=0.011948375
				26:leaf=0.0107374368
		6:[myrecentsearchcount_14<1.5] yes=13,no=14,missing=13
			13:[groupunreadmsgcount_<0.5] yes=27,no=28,missing=27
				27:leaf=0.00488149049
				28:leaf=-0.00217551575
			14:[myrecentsearchcount_14<5.5] yes=29,no=30,missing=29
				29:leaf=0.00694503216
				30:leaf=0.0108882142
booster[65]:
0:[myrecentsearchcount_7<0.5] yes=1,no=2,missing=1
	1:[groupunreadmsgcount_<0.5] yes=3,no=4,missing=3
		3:[groupmyselflastactivetime_<1249.5] yes=7,no=8,missing=7
			7:[groupfriendscount_<5.5] yes=15,no=16,missing=15
				15:leaf=0.00472276937
				16:leaf=0.00022792838
			8:[languageversion_others<0.5] yes=17,no=18,missing=17
				17:leaf=-0.000818343193
				18:leaf=-0.00510816742
		4:[groupmyselflastactivetime_<332.5] yes=9,no=10,missing=9
			9:[grouplastactivetime_<16.5] yes=19,no=20,missing=19
				19:leaf=-0.00512297126
				20:leaf=0.000981538673
			10:[groupfriendscount_<11.5] yes=21,no=22,missing=21
				21:leaf=-0.010577105
				22:leaf=-0.00821657199
	2:[groupunreadmsgcount_<1.5] yes=5,no=6,missing=5
		5:[myrecentsearchcount_7<2.5] yes=11,no=12,missing=11
			11:[groupfriendscount_<7.5] yes=23,no=24,missing=23
				23:leaf=0.00997736678
				24:leaf=0.00742416829
			12:[myrecentsearchcount_7<5.5] yes=25,no=26,missing=25
				25:leaf=0.0105927791
				26:leaf=0.0118063278
		6:[myrecentsearchcount_7<2.5] yes=13,no=14,missing=13
			13:[groupunreadmsgcount_<46.5] yes=27,no=28,missing=27
				27:leaf=0.00247774855
				28:leaf=-0.0047608898
			14:[myrecentsearchcount_7<6.5] yes=29,no=30,missing=29
				29:leaf=0.0073774308
				30:leaf=0.010994886
booster[66]:
0:[myrecentsearchcount_7<0.5] yes=1,no=2,missing=1
	1:[myrecentmsgcount_<3.5] yes=3,no=4,missing=3
		3:[groupunreadmsgcount_<0.5] yes=7,no=8,missing=7
			7:[groupmyselflastactivetime_<2178.5] yes=15,no=16,missing=15
				15:leaf=-0.000693467853
				16:leaf=-0.00523083657
			8:[groupfriendscount_<14.5] yes=17,no=18,missing=17
				17:leaf=-0.0105488505
				18:leaf=-0.00823559705
		4:[groupfriendscount_<5.5] yes=9,no=10,missing=9
			9:[groupunreadmsgcount_<0.5] yes=19,no=20,missing=19
				19:leaf=0.00620716065
				20:leaf=-0.00311766774
			10:[groupunreadmsgcount_<0.5] yes=21,no=22,missing=21
				21:leaf=0.00139957643
				22:leaf=-0.00336467568
	2:[groupunreadmsgcount_<2.5] yes=5,no=6,missing=5
		5:[myrecentsearchcount_7<2.5] yes=11,no=12,missing=11
			11:[groupfriendscount_<7.5] yes=23,no=24,missing=23
				23:leaf=0.00991810672
				24:leaf=0.00729559781
			12:[myrecentsearchcount_7<6.5] yes=25,no=26,missing=25
				25:leaf=0.0105363298
				26:leaf=0.0118711013
		6:[myrecentsearchcount_7<1.5] yes=13,no=14,missing=13
			13:[groupunreadmsgcount_<18.5] yes=27,no=28,missing=27
				27:leaf=0.00117329741
				28:leaf=-0.00566985225
			14:[myrecentsearchcount_7<4.5] yes=29,no=30,missing=29
				29:leaf=0.00560198911
				30:leaf=0.00973941758
booster[67]:
0:[myrecentsearchcount_7<0.5] yes=1,no=2,missing=1
	1:[groupmembercount_<28.5] yes=3,no=4,missing=3
		3:[grouplastactivetime_<1675.5] yes=7,no=8,missing=7
			7:[groupmembercount_<5.5] yes=15,no=16,missing=15
				15:leaf=0.00629920233
				16:leaf=0.00124457257
			8:[grouplastactivetime_<430818.5] yes=17,no=18,missing=17
				17:leaf=-0.00682852557
				18:leaf=-9.32608964e-05
		4:[groupmembercount_<83.5] yes=9,no=10,missing=9
			9:[groupmyselflastactivetime_<1307.5] yes=19,no=20,missing=19
				19:leaf=-0.00178270973
				20:leaf=-0.00507930666
			10:[groupunreadmsgcount_<0.5] yes=21,no=22,missing=21
				21:leaf=-0.0067125163
				22:leaf=-0.00986321084
	2:[groupmembercount_<24.5] yes=5,no=6,missing=5
		5:[myrecentsearchcount_7<2.5] yes=11,no=12,missing=11
			11:[groupmembercount_<6.5] yes=23,no=24,missing=23
				23:leaf=0.0105972597
				24:leaf=0.00859749876
			12:[myrecentsearchcount_7<4.5] yes=25,no=26,missing=25
				25:leaf=0.0107153654
				26:leaf=0.0117348256
		6:[myrecentsearchcount_7<2.5] yes=13,no=14,missing=13
			13:[groupunreadmsgcount_<0.5] yes=27,no=28,missing=27
				27:leaf=0.00671112724
				28:leaf=6.34971075e-05
			14:[myrecentsearchcount_7<10.5] yes=29,no=30,missing=29
				29:leaf=0.00918305479
				30:leaf=0.0118591553
booster[68]:
0:[myrecentsearchcount_30<0.5] yes=1,no=2,missing=1
	1:[groupmembercount_<29.5] yes=3,no=4,missing=3
		3:[myrecentmsgcount_<3.5] yes=7,no=8,missing=7
			7:[groupmyselflastactivetime_<1870.5] yes=15,no=16,missing=15
				15:leaf=0.00133772776
				16:leaf=-0.00330613181
			8:[groupfriendscount_<3.5] yes=17,no=18,missing=17
				17:leaf=0.00785856415
				18:leaf=0.00331117632
		4:[myrecentmsgcount_<0.5] yes=9,no=10,missing=9
			9:[groupmembercount_<200.5] yes=19,no=20,missing=19
				19:leaf=-0.0072729229
				20:leaf=-0.0104564046
			10:[groupmembercount_<210.5] yes=21,no=22,missing=21
				21:leaf=-0.00253871386
				22:leaf=-0.00778683834
	2:[groupmembercount_<24.5] yes=5,no=6,missing=5
		5:[myrecentsearchcount_7<1.5] yes=11,no=12,missing=11
			11:[groupfriendscount_<4.5] yes=23,no=24,missing=23
				23:leaf=0.0101403957
				24:leaf=0.00776239578
			12:[myrecentsearchcount_7<4.5] yes=25,no=26,missing=25
				25:leaf=0.0103652347
				26:leaf=0.0116942022
		6:[myrecentsearchcount_7<1.5] yes=13,no=14,missing=13
			13:[groupmembercount_<242.5] yes=27,no=28,missing=27
				27:leaf=0.00515384972
				28:leaf=-0.000357515906
			14:[myrecentsearchcount_7<3.5] yes=29,no=30,missing=29
				29:leaf=0.00742788007
				30:leaf=0.0102984402
booster[69]:
0:[myrecentsearchcount_7<0.5] yes=1,no=2,missing=1
	1:[groupmembercount_<33.5] yes=3,no=4,missing=3
		3:[myrecentmsgcount_<3.5] yes=7,no=8,missing=7
			7:[grouplastactivetime_<1824.5] yes=15,no=16,missing=15
				15:leaf=-0.000491731917
				16:leaf=-0.00605182117
			8:[groupmembercount_<5.5] yes=17,no=18,missing=17
				17:leaf=0.007475839
				18:leaf=0.00290014385
		4:[myrecentmsgcount_<0.5] yes=9,no=10,missing=9
			9:[groupunreadmsgcount_<1.5] yes=19,no=20,missing=19
				19:leaf=-0.00723426696
				20:leaf=-0.0103081185
			10:[grouplastactivetime_<36.5] yes=21,no=22,missing=21
				21:leaf=-0.00561395101
				22:leaf=0.000444244506
	2:[groupmembercount_<24.5] yes=5,no=6,missing=5
		5:[myrecentsearchcount_7<2.5] yes=11,no=12,missing=11
			11:[groupmembercount_<6.5] yes=23,no=24,missing=23
				23:leaf=0.0104099894
				24:leaf=0.00852301624
			12:[groupmembercount_<5.5] yes=25,no=26,missing=25
				25:leaf=0.0118388217
				26:leaf=0.0108183501
		6:[myrecentsearchcount_7<2.5] yes=13,no=14,missing=13
			13:[groupunreadmsgcount_<0.5] yes=27,no=28,missing=27
				27:leaf=0.00663435645
				28:leaf=0.000554623606
			14:[myrecentsearchcount_7<5.5] yes=29,no=30,missing=29
				29:leaf=0.00885011256
				30:leaf=0.010939681
booster[70]:
0:[myrecentsearchcount_7<0.5] yes=1,no=2,missing=1
	1:[groupmembercount_<29.5] yes=3,no=4,missing=3
		3:[myrecentmsgcount_<3.5] yes=7,no=8,missing=7
			7:[myrecentmsgcount_<0.5] yes=15,no=16,missing=15
				15:leaf=-0.00275155599
				16:leaf=0.000830893929
			8:[groupfriendscount_<4.5] yes=17,no=18,missing=17
				17:leaf=0.00703395158
				18:leaf=0.00280042668
		4:[groupfriendscount_<12.5] yes=9,no=10,missing=9
			9:[groupmembercount_<91.5] yes=19,no=20,missing=19
				19:leaf=-0.00699749775
				20:leaf=-0.0102185812
			10:[groupmembercount_<198.5] yes=21,no=22,missing=21
				21:leaf=-0.0026356061
				22:leaf=-0.00812714174
	2:[groupmembercount_<23.5] yes=5,no=6,missing=5
		5:[myrecentsearchcount_7<2.5] yes=11,no=12,missing=11
			11:[groupfriendscount_<4.5] yes=23,no=24,missing=23
				23:leaf=0.0104824994
				24:leaf=0.00834277645
			12:[myrecentsearchcount_7<6.5] yes=25,no=26,missing=25
				25:leaf=0.0107389782
				26:leaf=0.0118766483
		6:[myrecentsearchcount_7<2.5] yes=13,no=14,missing=13
			13:[groupmembercount_<242.5] yes=27,no=28,missing=27
				27:leaf=0.00614226703
				28:leaf=0.00256280159
			14:[myrecentsearchcount_7<5.5] yes=29,no=30,missing=29
				29:leaf=0.00875600241
				30:leaf=0.0109691275
booster[71]:
0:[myrecentsearchcount_7<0.5] yes=1,no=2,missing=1
	1:[groupmembercount_<29.5] yes=3,no=4,missing=3
		3:[grouplastactivetime_<1681.5] yes=7,no=8,missing=7
			7:[groupmembercount_<7.5] yes=15,no=16,missing=15
				15:leaf=0.00511436677
				16:leaf=0.000590310199
			8:[grouplastactivetime_<430816.5] yes=17,no=18,missing=17
				17:leaf=-0.0064693098
				18:leaf=-0.000297061924
		4:[groupfriendscount_<12.5] yes=9,no=10,missing=9
			9:[groupmembercount_<78.5] yes=19,no=20,missing=19
				19:leaf=-0.00669253338
				20:leaf=-0.010152881
			10:[groupmembercount_<200.5] yes=21,no=22,missing=21
				21:leaf=-0.0027078765
				22:leaf=-0.00802531559
	2:[groupmembercount_<24.5] yes=5,no=6,missing=5
		5:[myrecentsearchcount_7<1.5] yes=11,no=12,missing=11
			11:[groupmembercount_<6.5] yes=23,no=24,missing=23
				23:leaf=0.0101253316
				24:leaf=0.0079086693
			12:[groupfriendscount_<3.5] yes=25,no=26,missing=25
				25:leaf=0.0116020115
				26:leaf=0.010306444
		6:[myrecentsearchcount_7<1.5] yes=13,no=14,missing=13
			13:[grouplastactivetime_<40.5] yes=27,no=28,missing=27
				27:leaf=0.0033150583
				28:leaf=0.00809806678
			14:[myrecentsearchcount_7<3.5] yes=29,no=30,missing=29
				29:leaf=0.00737820007
				30:leaf=0.0101069398
booster[72]:
0:[myrecentsearchcount_14<0.5] yes=1,no=2,missing=1
	1:[groupmembercount_<61.5] yes=3,no=4,missing=3
		3:[myrecentmsgcount_<4.5] yes=7,no=8,missing=7
			7:[groupmembercount_<5.5] yes=15,no=16,missing=15
				15:leaf=0.00145454169
				16:leaf=-0.00297371601
			8:[grouplastactivetime_<13.5] yes=17,no=18,missing=17
				17:leaf=0.00053384935
				18:leaf=0.00553118577
		4:[groupfriendscount_<30.5] yes=9,no=10,missing=9
			9:[groupmembercount_<214.5] yes=19,no=20,missing=19
				19:leaf=-0.00779990992
				20:leaf=-0.0104526766
			10:[groupmembercount_<127.5] yes=21,no=22,missing=21
				21:leaf=-0.00184569589
				22:leaf=-0.00637446111
	2:[groupmembercount_<56.5] yes=5,no=6,missing=5
		5:[myrecentsearchcount_14<1.5] yes=11,no=12,missing=11
			11:[groupfriendscount_<7.5] yes=23,no=24,missing=23
				23:leaf=0.00934769213
				24:leaf=0.00703163026
			12:[groupmembercount_<5.5] yes=25,no=26,missing=25
				25:leaf=0.0113960998
				26:leaf=0.00980133191
		6:[myrecentsearchcount_14<2.5] yes=13,no=14,missing=13
			13:[groupunreadmsgcount_<0.5] yes=27,no=28,missing=27
				27:leaf=0.00525329821
				28:leaf=-0.000664863735
			14:[myrecentsearchcount_14<5.5] yes=29,no=30,missing=29
				29:leaf=0.00770655414
				30:leaf=0.0105900289
booster[73]:
0:[myrecentsearchcount_7<0.5] yes=1,no=2,missing=1
	1:[groupmembercount_<61.5] yes=3,no=4,missing=3
		3:[myrecentmsgcount_<3.5] yes=7,no=8,missing=7
			7:[groupmembercount_<6.5] yes=15,no=16,missing=15
				15:leaf=0.00109838054
				16:leaf=-0.0030642068
			8:[groupmembercount_<6.5] yes=17,no=18,missing=17
				17:leaf=0.00673155673
				18:leaf=0.00184324873
		4:[groupfriendscount_<22.5] yes=9,no=10,missing=9
			9:[groupmembercount_<210.5] yes=19,no=20,missing=19
				19:leaf=-0.00816982705
				20:leaf=-0.0104665412
			10:[groupmembercount_<238.5] yes=21,no=22,missing=21
				21:leaf=-0.00321798609
				22:leaf=-0.00759351114
	2:[groupmembercount_<56.5] yes=5,no=6,missing=5
		5:[myrecentsearchcount_7<1.5] yes=11,no=12,missing=11
			11:[groupfriendscount_<6.5] yes=23,no=24,missing=23
				23:leaf=0.00941324234
				24:leaf=0.00736516155
			12:[groupmembercount_<5.5] yes=25,no=26,missing=25
				25:leaf=0.0114271743
				26:leaf=0.00990525167
		6:[myrecentsearchcount_7<2.5] yes=13,no=14,missing=13
			13:[groupunreadmsgcount_<1.5] yes=27,no=28,missing=27
				27:leaf=0.00523582427
				28:leaf=-0.000128124113
			14:[myrecentsearchcount_7<5.5] yes=29,no=30,missing=29
				29:leaf=0.00801534113
				30:leaf=0.0111322086
booster[74]:
0:[myrecentsearchcount_7<0.5] yes=1,no=2,missing=1
	1:[groupmembercount_<60.5] yes=3,no=4,missing=3
		3:[groupmembercount_<7.5] yes=7,no=8,missing=7
			7:[grouplastactivetime_<1609.5] yes=15,no=16,missing=15
				15:leaf=0.00517329341
				16:leaf=-0.0034377398
			8:[grouplastactivetime_<1291.5] yes=17,no=18,missing=17
				17:leaf=-0.000445038168
				18:leaf=-0.0062601557
		4:[groupfriendscount_<19.5] yes=9,no=10,missing=9
			9:[groupmyselflastactivetime_<323.5] yes=19,no=20,missing=19
				19:leaf=-0.00640441896
				20:leaf=-0.00993103161
			10:[groupmembercount_<238.5] yes=21,no=22,missing=21
				21:leaf=-0.00361608341
				22:leaf=-0.00790886208
	2:[groupmembercount_<55.5] yes=5,no=6,missing=5
		5:[myrecentsearchcount_7<1.5] yes=11,no=12,missing=11
			11:[groupfriendscount_<7.5] yes=23,no=24,missing=23
				23:leaf=0.00937257987
				24:leaf=0.00716265664
			12:[myrecentsearchcount_7<5.5] yes=25,no=26,missing=25
				25:leaf=0.00995806511
				26:leaf=0.011514728
		6:[myrecentsearchcount_7<1.5] yes=13,no=14,missing=13
			13:[groupunreadmsgcount_<3.5] yes=27,no=28,missing=27
				27:leaf=0.00475416752
				28:leaf=-0.00145821518
			14:[myrecentsearchcount_7<5.5] yes=29,no=30,missing=29
				29:leaf=0.00708024763
				30:leaf=0.0109059224
booster[75]:
0:[myrecentsearchcount_14<0.5] yes=1,no=2,missing=1
	1:[groupmembercount_<61.5] yes=3,no=4,missing=3
		3:[myrecentmsgcount_<2.5] yes=7,no=8,missing=7
			7:[groupmembercount_<6.5] yes=15,no=16,missing=15
				15:leaf=0.000769168662
				16:leaf=-0.00328007364
			8:[groupmembercount_<7.5] yes=17,no=18,missing=17
				17:leaf=0.0060551092
				18:leaf=0.00154457416
		4:[groupfriendscount_<13.5] yes=9,no=10,missing=9
			9:[groupmembercount_<212.5] yes=19,no=20,missing=19
				19:leaf=-0.00842279755
				20:leaf=-0.0106792422
			10:[groupmembercount_<237.5] yes=21,no=22,missing=21
				21:leaf=-0.00411909726
				22:leaf=-0.0080375867
	2:[groupmembercount_<56.5] yes=5,no=6,missing=5
		5:[myrecentsearchcount_7<1.5] yes=11,no=12,missing=11
			11:[groupfriendscount_<5.5] yes=23,no=24,missing=23
				23:leaf=0.00941425283
				24:leaf=0.00717254728
			12:[groupmembercount_<5.5] yes=25,no=26,missing=25
				25:leaf=0.0113722663
				26:leaf=0.00976318959
		6:[myrecentsearchcount_7<2.5] yes=13,no=14,missing=13
			13:[grouplastactivetime_<21.5] yes=27,no=28,missing=27
				27:leaf=0.00261365529
				28:leaf=0.00712252222
			14:[myrecentsearchcount_7<5.5] yes=29,no=30,missing=29
				29:leaf=0.00773841422
				30:leaf=0.0109957252
booster[76]:
0:[myrecentsearchcount_14<0.5] yes=1,no=2,missing=1
	1:[groupmembercount_<61.5] yes=3,no=4,missing=3
		3:[myrecentmsgcount_<3.5] yes=7,no=8,missing=7
			7:[grouplastactivetime_<2178.5] yes=15,no=16,missing=15
				15:leaf=-0.00143007038
				16:leaf=-0.00580411078
			8:[groupmembercount_<7.5] yes=17,no=18,missing=17
				17:leaf=0.00620901771
				18:leaf=0.00165539898
		4:[myrecentmsgcount_<1.5] yes=9,no=10,missing=9
			9:[groupmembercount_<203.5] yes=19,no=20,missing=19
				19:leaf=-0.00742524024
				20:leaf=-0.00982756726
			10:[grouplastactivetime_<11.5] yes=21,no=22,missing=21
				21:leaf=-0.00631091464
				22:leaf=-0.00137729035
	2:[groupmembercount_<56.5] yes=5,no=6,missing=5
		5:[myrecentsearchcount_7<1.5] yes=11,no=12,missing=11
			11:[groupmembercount_<9.5] yes=23,no=24,missing=23
				23:leaf=0.00916161016
				24:leaf=0.00700585544
			12:[myrecentsearchcount_7<4.5] yes=25,no=26,missing=25
				25:leaf=0.00973083731
				26:leaf=0.01119518
		6:[myrecentsearchcount_7<1.5] yes=13,no=14,missing=13
			13:[grouplastactivetime_<35.5] yes=27,no=28,missing=27
				27:leaf=0.00139749201
				28:leaf=0.00737602869
			14:[myrecentsearchcount_7<5.5] yes=29,no=30,missing=29
				29:leaf=0.00699931243
				30:leaf=0.0108923828
booster[77]:
0:[myrecentsearchcount_7<0.5] yes=1,no=2,missing=1
	1:[groupmembercount_<61.5] yes=3,no=4,missing=3
		3:[myrecentmsgcount_<2.5] yes=7,no=8,missing=7
			7:[groupmembercount_<5.5] yes=15,no=16,missing=15
				15:leaf=0.00123637088
				16:leaf=-0.00311883888
			8:[groupmembercount_<6.5] yes=17,no=18,missing=17
				17:leaf=0.00629958604
				18:leaf=0.00169201149
		4:[groupfriendscount_<28.5] yes=9,no=10,missing=9
			9:[groupmyselflastactivetime_<3377.5] yes=19,no=20,missing=19
				19:leaf=-0.00685020629
				20:leaf=-0.00971467793
			10:[groupmembercount_<238.5] yes=21,no=22,missing=21
				21:leaf=-0.0028184168
				22:leaf=-0.00711618038
	2:[groupmembercount_<55.5] yes=5,no=6,missing=5
		5:[myrecentsearchcount_7<1.5] yes=11,no=12,missing=11
			11:[groupfriendscount_<5.5] yes=23,no=24,missing=23
				23:leaf=0.00940422062
				24:leaf=0.00732406881
			12:[myrecentsearchcount_7<4.5] yes=25,no=26,missing=25
				25:leaf=0.00972307101
				26:leaf=0.011151867
		6:[myrecentsearchcount_7<2.5] yes=13,no=14,missing=13
			13:[groupunreadmsgcount_<1.5] yes=27,no=28,missing=27
				27:leaf=0.00525958883
				28:leaf=-0.000344352738
			14:[myrecentsearchcount_7<5.5] yes=29,no=30,missing=29
				29:leaf=0.00772359874
				30:leaf=0.0107952738
booster[78]:
0:[myrecentsearchcount_7<0.5] yes=1,no=2,missing=1
	1:[groupmembercount_<62.5] yes=3,no=4,missing=3
		3:[myrecentmsgcount_<2.5] yes=7,no=8,missing=7
			7:[groupmembercount_<5.5] yes=15,no=16,missing=15
				15:leaf=0.00122574344
				16:leaf=-0.00325042498
			8:[groupmembercount_<6.5] yes=17,no=18,missing=17
				17:leaf=0.00635521347
				18:leaf=0.00171098812
		4:[groupfriendscount_<17.5] yes=9,no=10,missing=9
			9:[groupunreadmsgcount_<0.5] yes=19,no=20,missing=19
				19:leaf=-0.00793582574
				20:leaf=-0.0102005871
			10:[groupmembercount_<248.5] yes=21,no=22,missing=21
				21:leaf=-0.00369004533
				22:leaf=-0.00763719296
	2:[groupmembercount_<55.5] yes=5,no=6,missing=5
		5:[myrecentsearchcount_7<2.5] yes=11,no=12,missing=11
			11:[groupfriendscount_<6.5] yes=23,no=24,missing=23
				23:leaf=0.00958618708
				24:leaf=0.00740326196
			12:[myrecentsearchcount_7<7.5] yes=25,no=26,missing=25
				25:leaf=0.0101257171
				26:leaf=0.0116045782
		6:[myrecentsearchcount_7<2.5] yes=13,no=14,missing=13
			13:[groupunreadmsgcount_<0.5] yes=27,no=28,missing=27
				27:leaf=0.0054473877
				28:leaf=0.000317546743
			14:[myrecentsearchcount_7<5.5] yes=29,no=30,missing=29
				29:leaf=0.00777115067
				30:leaf=0.0108425971
booster[79]:
0:[myrecentsearchcount_7<0.5] yes=1,no=2,missing=1
	1:[myrecentmsgcount_<2.5] yes=3,no=4,missing=3
		3:[groupunreadmsgcount_<0.5] yes=7,no=8,missing=7
			7:[languageversion_others<0.5] yes=15,no=16,missing=15
				15:leaf=-0.00168882892
				16:leaf=-0.00520966155
			8:[groupfriendscount_<9.5] yes=17,no=18,missing=17
				17:leaf=-0.00999387261
				18:leaf=-0.00756459078
		4:[grouplastactivetime_<12.5] yes=9,no=10,missing=9
			9:[groupunreadmsgcount_<0.5] yes=19,no=20,missing=19
				19:leaf=-0.000733892608
				20:leaf=-0.00505433232
			10:[myrecentmsgcount_<19.5] yes=21,no=22,missing=21
				21:leaf=0.00238947384
				22:leaf=0.00645532366
	2:[myrecentsearchcount_7<1.5] yes=5,no=6,missing=5
		5:[groupunreadmsgcount_<1.5] yes=11,no=12,missing=11
			11:[groupfriendscount_<6.5] yes=23,no=24,missing=23
				23:leaf=0.00897347275
				24:leaf=0.00665061502
			12:[groupunreadmsgcount_<7.5] yes=25,no=26,missing=25
				25:leaf=0.00362684811
				26:leaf=-0.00231574685
		6:[myrecentsearchcount_7<5.5] yes=13,no=14,missing=13
			13:[groupfriendscount_<9.5] yes=27,no=28,missing=27
				27:leaf=0.0100579876
				28:leaf=0.0079347007
			14:[myrecentsearchcount_7<11.5] yes=29,no=30,missing=29
				29:leaf=0.0107514774
				30:leaf=0.0118325818
